{"learner":{"attributes":{"scikit_learn":"{\"_estimator_type\": \"classifier\"}"},"feature_names":["Aspect","Plant","Inch","Width","Mass_Pilot","Proc_Param10","Proc_Param1","Proc_Param11","Proc_Param8","Proc_Param2","Proc_Param9","Proc_Param7","Proc_Param6","Proc_Param5","Proc_Param3","Proc_Param4"],"feature_types":["float","float","float","float","float","float","float","float","float","float","float","float","float","float","float","float"],"gradient_booster":{"model":{"cats":{"enc":[],"feature_segments":[],"sorted_idx":[]},"gbtree_model_param":{"num_parallel_tree":"1","num_trees":"300"},"iteration_indptr":[0,1,2,3,4,5,6,7,8,9,10,11,12,13,14,15,16,17,18,19,20,21,22,23,24,25,26,27,28,29,30,31,32,33,34,35,36,37,38,39,40,41,42,43,44,45,46,47,48,49,50,51,52,53,54,55,56,57,58,59,60,61,62,63,64,65,66,67,68,69,70,71,72,73,74,75,76,77,78,79,80,81,82,83,84,85,86,87,88,89,90,91,92,93,94,95,96,97,98,99,100,101,102,103,104,105,106,107,108,109,110,111,112,113,114,115,116,117,118,119,120,121,122,123,124,125,126,127,128,129,130,131,132,133,134,135,136,137,138,139,140,141,142,143,144,145,146,147,148,149,150,151,152,153,154,155,156,157,158,159,160,161,162,163,164,165,166,167,168,169,170,171,172,173,174,175,176,177,178,179,180,181,182,183,184,185,186,187,188,189,190,191,192,193,194,195,196,197,198,199,200,201,202,203,204,205,206,207,208,209,210,211,212,213,214,215,216,217,218,219,220,221,222,223,224,225,226,227,228,229,230,231,232,233,234,235,236,237,238,239,240,241,242,243,244,245,246,247,248,249,250,251,252,253,254,255,256,257,258,259,260,261,262,263,264,265,266,267,268,269,270,271,272,273,274,275,276,277,278,279,280,281,282,283,284,285,286,287,288,289,290,291,292,293,294,295,296,297,298,299,300],"tree_info":[0,0,0,0,0,0,0,0,0,0,0,0,0,0,0,0,0,0,0,0,0,0,0,0,0,0,0,0,0,0,0,0,0,0,0,0,0,0,0,0,0,0,0,0,0,0,0,0,0,0,0,0,0,0,0,0,0,0,0,0,0,0,0,0,0,0,0,0,0,0,0,0,0,0,0,0,0,0,0,0,0,0,0,0,0,0,0,0,0,0,0,0,0,0,0,0,0,0,0,0,0,0,0,0,0,0,0,0,0,0,0,0,0,0,0,0,0,0,0,0,0,0,0,0,0,0,0,0,0,0,0,0,0,0,0,0,0,0,0,0,0,0,0,0,0,0,0,0,0,0,0,0,0,0,0,0,0,0,0,0,0,0,0,0,0,0,0,0,0,0,0,0,0,0,0,0,0,0,0,0,0,0,0,0,0,0,0,0,0,0,0,0,0,0,0,0,0,0,0,0,0,0,0,0,0,0,0,0,0,0,0,0,0,0,0,0,0,0,0,0,0,0,0,0,0,0,0,0,0,0,0,0,0,0,0,0,0,0,0,0,0,0,0,0,0,0,0,0,0,0,0,0,0,0,0,0,0,0,0,0,0,0,0,0,0,0,0,0,0,0,0,0,0,0,0,0,0,0,0,0,0,0,0,0,0,0,0,0,0,0,0,0,0,0,0,0,0,0,0,0],"trees":[{"base_weights":[2.734488E-2,-3.9598832E-1,8.6500025E-1,-5.664394E-1,2.0994207E-1,2.2824953E0,-3.6233343E-2,-8.665183E-1,-2.1097867E-1,-3.745431E-1,1.0909871E0,2.0153953E-1,2.9737167E0,-4.0027148E-1,6.362459E-1,-4.8222747E-3,-9.101214E-1,-5.1106113E-1,6.7024326E-1,-7.0551992E-3,-3.939182E-2,8.1929214E-2,-8.019848E-3,-4.8222747E-3,1.9977992E-2,1.7797092E-1,1.5310617E-2,3.0297672E-2,-7.4350744E-1,1.4123088E0,-2.1333864E-2,-4.7797784E-2,-1.0859613E-2,2.3935346E-2,-6.954087E-1,-2.9622544E-2,1.2197139E0,1.6372584E-2,-1.774633E-2,-4.7169957E-2,-2.0920558E-1,8.530201E-2,1.9977992E-2,1.1132382E-3,-8.2765615E-1,8.530201E-2,1.1165517E-2,-2.9622544E-2,1.1165517E-2,-1.0460279E-2,-5.018589E-2],"categories":[],"categories_nodes":[],"categories_segments":[],"categories_sizes":[],"default_left":[0,0,0,0,0,0,0,0,0,0,0,0,0,0,0,0,0,0,0,0,0,0,0,0,0,0,0,0,0,0,0,0,0,0,0,0,0,0,0,0,0,0,0,0,0,0,0,0,0,0,0],"id":0,"left_children":[1,3,5,7,9,11,13,15,17,19,21,23,25,27,29,-1,31,33,35,37,-1,-1,-1,-1,-1,-1,-1,-1,39,41,-1,-1,-1,-1,43,-1,45,-1,-1,-1,47,-1,-1,-1,49,-1,-1,-1,-1,-1,-1],"loss_changes":[2.1325403E1,4.249468E0,2.5861286E1,3.1753798E0,5.305817E0,1.0704678E1,3.5155883E0,4.7463417E-1,4.5031037E0,9.7582763E-1,3.0369544E0,2.1745792E-1,8.013172E0,3.647255E0,4.7802234E0,0E0,2.920704E-1,2.5779357E0,3.7957718E0,6.316456E-1,0E0,0E0,0E0,0E0,0E0,0E0,0E0,0E0,5.877056E-1,2.5813007E-1,0E0,0E0,0E0,0E0,1.0415664E0,0E0,1.2730088E0,0E0,0E0,0E0,6.7702675E-1,0E0,0E0,0E0,7.8401566E-1,0E0,0E0,0E0,0E0,0E0,0E0],"parents":[2147483647,0,0,1,1,2,2,3,3,4,4,5,5,6,6,7,7,8,8,9,9,10,10,11,11,12,12,13,13,14,14,16,16,17,17,18,18,19,19,28,28,29,29,34,34,36,36,40,40,44,44],"right_children":[2,4,6,8,10,12,14,16,18,20,22,24,26,28,30,-1,32,34,36,38,-1,-1,-1,-1,-1,-1,-1,-1,40,42,-1,-1,-1,-1,44,-1,46,-1,-1,-1,48,-1,-1,-1,50,-1,-1,-1,-1,-1,-1],"split_conditions":[5.4249203E-1,1.174216E0,-7.551211E-1,1.16316E0,-3.0662593E-1,-4.347186E-1,5.964554E-1,-9.9369556E-1,1.1793306E-1,-7.3118496E-1,-3.8389418E-1,1.16316E0,1.636653E0,-6.050467E-1,1.8032502E0,-4.8222747E-3,7.0846814E-1,-9.044109E-1,-4.347186E-1,6.4458275E-1,-3.939182E-2,8.1929214E-2,-8.019848E-3,-4.8222747E-3,1.9977992E-2,1.7797092E-1,1.5310617E-2,3.0297672E-2,-2.0400664E-1,6.965131E-1,-2.1333864E-2,-4.7797784E-2,-1.0859613E-2,2.3935346E-2,-1.1210693E0,-2.9622544E-2,9.966864E-1,1.6372584E-2,-1.774633E-2,-4.7169957E-2,9.670511E-1,8.530201E-2,1.9977992E-2,1.1132382E-3,-5.041799E-1,8.530201E-2,1.1165517E-2,-2.9622544E-2,1.1165517E-2,-1.0460279E-2,-5.018589E-2],"split_indices":[0,1,1,4,0,3,11,6,0,0,10,4,5,10,5,0,5,11,3,3,0,0,0,0,0,0,0,0,11,11,0,0,0,0,10,0,11,0,0,0,0,0,0,0,11,0,0,0,0,0,0],"split_type":[0,0,0,0,0,0,0,0,0,0,0,0,0,0,0,0,0,0,0,0,0,0,0,0,0,0,0,0,0,0,0,0,0,0,0,0,0,0,0,0,0,0,0,0,0,0,0,0,0,0,0],"sum_hessian":[5.817214E1,3.8993114E1,1.9179024E1,3.0483215E1,8.509898E0,6.8587236E0,1.23203E1,1.5749661E1,1.4733555E1,5.461576E0,3.0483217E0,2.0322144E0,4.826509E0,8.255871E0,4.064429E0,1.0161072E0,1.4733555E1,1.1304193E1,3.4293618E0,3.4293618E0,2.0322144E0,1.905201E0,1.1431206E0,1.0161072E0,1.0161072E0,3.6833887E0,1.1431206E0,1.905201E0,6.35067E0,2.1592278E0,1.905201E0,1.3463421E1,1.270134E0,1.5241609E0,9.780032E0,1.0161072E0,2.4132545E0,1.7781876E0,1.6511742E0,4.064429E0,2.2862413E0,1.1431206E0,1.0161072E0,1.6511742E0,8.128858E0,1.1431206E0,1.270134E0,1.0161072E0,1.270134E0,2.2862413E0,5.8426166E0],"tree_param":{"num_deleted":"0","num_feature":"16","num_nodes":"51","size_leaf_vector":"1"}},{"base_weights":[-9.785834E-2,-5.223251E-1,7.3156905E-1,3.719337E-1,-6.0771215E-1,2.0914338E0,-1.081401E-1,-3.788009E-2,8.465974E-2,-7.709014E-1,-2.3421139E-2,1.9689466E-1,2.7438226E0,-3.0558908E-1,4.172836E-2,1.5340087E-2,-8.2833654E-1,-2.53216E-1,4.3243505E-2,1.9732062E-2,-4.9287165E-3,3.9153215E-2,1.5278709E-1,2.8889013E-2,-5.4065007E-1,-6.621311E-1,-5.2474763E-2,2.1365301E-1,-4.2440098E-2,-4.765158E-2,-1.9579766E-2,-8.306194E-1,1.7205651E-1,-3.3804417E-2,7.117647E-1,3.3672687E-2,-5.61318E-1,-4.6096392E-2,-1.303331E-2,3.9959572E-2,-1.8818362E-2,6.9865204E-2,-2.9559433E-2,-3.568097E-2,-4.4175466E-3],"categories":[],"categories_nodes":[],"categories_segments":[],"categories_sizes":[],"default_left":[0,0,0,0,0,0,0,0,0,0,0,0,0,0,0,0,0,0,0,0,0,0,0,0,0,0,0,0,0,0,0,0,0,0,0,0,0,0,0,0,0,0,0,0,0],"id":1,"left_children":[1,3,5,7,9,11,13,-1,-1,15,17,19,21,23,-1,-1,25,27,-1,-1,-1,-1,-1,-1,29,31,-1,33,-1,-1,35,37,39,-1,41,-1,43,-1,-1,-1,-1,-1,-1,-1,-1],"loss_changes":[2.0698282E1,3.1852703E0,2.3008118E1,7.249798E0,3.3913288E0,8.9343605E0,2.7279317E0,0E0,0E0,1.9822559E0,2.0229852E0,2.1657233E-1,1.0472946E0,2.7452862E0,0E0,0E0,2.8934097E-1,2.3487842E0,0E0,0E0,0E0,0E0,0E0,0E0,2.0808756E0,2.6723933E0,0E0,2.771844E0,0E0,0E0,2.3819509E0,5.4781914E-1,1.6258281E0,0E0,4.220888E0,0E0,1.9203353E-1,0E0,0E0,0E0,0E0,0E0,0E0,0E0,0E0],"parents":[2147483647,0,0,1,1,2,2,3,3,4,4,5,5,6,6,9,9,10,10,11,11,12,12,13,13,16,16,17,17,24,24,25,25,27,27,30,30,31,31,32,32,34,34,36,36],"right_children":[2,4,6,8,10,12,14,-1,-1,16,18,20,22,24,-1,-1,26,28,-1,-1,-1,-1,-1,-1,30,32,-1,34,-1,-1,36,38,40,-1,42,-1,44,-1,-1,-1,-1,-1,-1,-1,-1],"split_conditions":[5.4249203E-1,-1.3382984E0,-7.551211E-1,1.16316E0,1.1793306E-1,8.967826E-2,4.8997827E-2,-3.788009E-2,8.465974E-2,-1.5211613E0,1.174216E0,9.670511E-1,9.526964E-2,-6.050467E-1,4.172836E-2,1.5340087E-2,3.9633986E-1,-7.551211E-1,4.3243505E-2,1.9732062E-2,-4.9287165E-3,3.9153215E-2,1.5278709E-1,2.8889013E-2,9.348361E-2,-9.428866E-2,-5.2474763E-2,-2.8206092E-1,-4.2440098E-2,-4.765158E-2,1.7667061E0,6.608805E-1,6.608805E-1,-3.3804417E-2,1.3451676E0,3.3672687E-2,1.8984487E0,-4.6096392E-2,-1.303331E-2,3.9959572E-2,-1.8818362E-2,6.9865204E-2,-2.9559433E-2,-3.568097E-2,-4.4175466E-3],"split_indices":[0,5,1,4,0,5,6,0,0,9,1,0,10,10,0,0,11,1,0,0,0,0,0,0,9,9,0,9,0,0,8,6,6,0,9,0,5,0,0,0,0,0,0,0,0],"split_type":[0,0,0,0,0,0,0,0,0,0,0,0,0,0,0,0,0,0,0,0,0,0,0,0,0,0,0,0,0,0,0,0,0,0,0,0,0,0,0,0,0,0,0,0,0],"sum_hessian":[5.6705837E1,3.7754765E1,1.8951075E1,2.9982476E0,3.4756516E1,6.665684E0,1.228539E1,1.8463905E0,1.1518573E0,2.691885E1,7.837666E0,2.0408514E0,4.624833E0,1.071664E1,1.5687495E0,1.142346E0,2.5776505E1,6.79483E0,1.042836E0,1.0215331E0,1.0193181E0,1.11655E0,3.5082831E0,1.9458921E0,8.770748E0,1.6996897E1,8.779608E0,4.1684947E0,2.6263354E0,4.433239E0,4.337509E0,1.4144319E1,2.8525772E0,1.3678677E0,2.800627E0,1.7963473E0,2.5411618E0,1.1658964E1,2.4853551E0,1.1174716E0,1.7351056E0,1.7876534E0,1.0129737E0,1.5373131E0,1.0038486E0],"tree_param":{"num_deleted":"0","num_feature":"16","num_nodes":"45","size_leaf_vector":"1"}},{"base_weights":[-2.030876E-2,-3.5691273E-1,6.051466E-1,-1.3454236E-1,-8.2285315E-1,1.8752141E0,-2.5473753E-1,-3.5313585E-1,7.1509844E-1,-9.596753E-1,4.230211E-3,-3.1165436E-2,2.3261738E0,3.154592E-2,-4.544646E-1,3.2276995E-2,-4.4507867E-1,8.067446E-2,1.3990372E-1,-6.5528094E-3,-5.2018948E-2,2.7809598E0,-7.466685E-3,-5.771842E-1,2.022321E-2,-6.1537063E-1,-1.4882536E-1,-5.299451E-1,5.2976873E-2,4.7379553E-2,1.5630262E-1,-7.0860034E-1,9.0256175E-3,-7.235971E-1,9.506591E-3,4.31172E-1,-4.885309E-1,-7.6518985E-3,-3.2564264E-2,-4.6048827E-2,-3.8853434E-1,-4.859821E-3,-3.870764E-2,4.0519115E-2,-1.0137342E-2,-4.1888013E-2,-2.92996E-4,3.8883348E-3,-3.898169E-2],"categories":[],"categories_nodes":[],"categories_segments":[],"categories_sizes":[],"default_left":[0,0,0,0,0,0,0,0,0,0,0,0,0,0,0,0,0,0,0,0,0,0,0,0,0,0,0,0,0,0,0,0,0,0,0,0,0,0,0,0,0,0,0,0,0,0,0,0,0],"id":2,"left_children":[1,3,5,7,9,11,13,15,17,19,-1,-1,21,-1,23,-1,25,-1,27,-1,-1,29,-1,31,-1,33,35,37,-1,-1,-1,39,-1,41,-1,43,45,-1,-1,-1,47,-1,-1,-1,-1,-1,-1,-1,-1],"loss_changes":[1.2458518E1,3.8715E0,2.3102633E1,5.3066473E0,1.5985947E0,1.1008173E1,2.6276069E0,2.3361769E0,2.8226495E0,5.792608E-1,0E0,0E0,8.743546E0,0E0,1.4329512E0,0E0,9.6909046E-1,0E0,3.4514933E0,0E0,0E0,1.02388E0,0E0,1.1603961E0,0E0,1.2736115E0,1.9825249E0,5.4952323E-2,0E0,0E0,0E0,2.5662327E-1,0E0,2.9514456E-1,0E0,1.0904938E0,1.0300919E0,0E0,0E0,0E0,1.0336323E0,0E0,0E0,0E0,0E0,0E0,0E0,0E0,0E0],"parents":[2147483647,0,0,1,1,2,2,3,3,4,4,5,5,6,6,7,7,8,8,9,9,12,12,14,14,16,16,18,18,21,21,23,23,25,25,26,26,27,27,31,31,33,33,35,35,36,36,40,40],"right_children":[2,4,6,8,10,12,14,16,18,20,-1,-1,22,-1,24,-1,26,-1,28,-1,-1,30,-1,32,-1,34,36,38,-1,-1,-1,40,-1,42,-1,44,46,-1,-1,-1,48,-1,-1,-1,-1,-1,-1,-1,-1],"split_conditions":[5.4249203E-1,6.4458275E-1,-7.551211E-1,1.174216E0,1.1793306E-1,-3.040644E-1,-6.050467E-1,-1.5286952E0,4.8771203E-2,-4.0412214E-1,4.230211E-3,-3.1165436E-2,1.636653E0,3.154592E-2,1.2968596E0,3.2276995E-2,-2.8202125E-1,8.067446E-2,-8.6923465E-2,-6.5528094E-3,-5.2018948E-2,-4.347186E-1,-7.466685E-3,1.608088E0,2.022321E-2,-3.716879E-1,1.9622436E-1,-6.243101E-1,5.2976873E-2,4.7379553E-2,1.5630262E-1,1.39161E0,9.0256175E-3,-1.5274906E0,9.506591E-3,-7.709111E-1,1.8741654E-1,-7.6518985E-3,-3.2564264E-2,-4.6048827E-2,1.7667061E0,-4.859821E-3,-3.870764E-2,4.0519115E-2,-1.0137342E-2,-4.1888013E-2,-2.92996E-4,3.8883348E-3,-3.898169E-2],"split_indices":[0,3,1,1,0,11,10,5,6,11,0,0,5,0,11,0,15,0,7,0,0,3,0,15,0,7,11,5,0,0,0,0,0,15,0,10,10,0,0,0,8,0,0,0,0,0,0,0,0],"split_type":[0,0,0,0,0,0,0,0,0,0,0,0,0,0,0,0,0,0,0,0,0,0,0,0,0,0,0,0,0,0,0,0,0,0,0,0,0,0,0,0,0,0,0,0,0,0,0,0,0],"sum_hessian":[5.7150806E1,3.7434097E1,1.9716711E1,2.6212784E1,1.1221313E1,7.4831543E0,1.2233556E1,2.1313635E1,4.8991494E0,9.701085E0,1.5202279E0,1.0856996E0,6.3974547E0,1.8538908E0,1.0379665E1,1.2892116E0,2.0024424E1,1.2077142E0,3.6914349E0,1.0938601E0,8.607225E0,5.30032E0,1.0971344E0,9.369076E0,1.0105898E0,1.2031381E1,7.993042E0,2.3809364E0,1.3104987E0,1.4330224E0,3.867298E0,8.039491E0,1.3295853E0,1.0695965E1,1.335416E0,2.8528934E0,5.1401486E0,1.1305258E0,1.2504106E0,3.7041712E0,4.335319E0,1.017044E0,9.678921E0,1.61089E0,1.2420032E0,2.555488E0,2.5846605E0,2.342982E0,1.9923373E0],"tree_param":{"num_deleted":"0","num_feature":"16","num_nodes":"49","size_leaf_vector":"1"}},{"base_weights":[-7.2226726E-2,-4.8260516E-1,3.7266296E-1,-1.5750164E-1,-5.2520394E-2,1.1911527E0,-2.7581912E-1,-3.736521E-1,5.4967475E-1,-3.916159E-2,1.6228808E0,-4.3928483E-1,3.8156804E-2,3.0568007E-1,-5.1511985E-1,-3.3841144E-2,5.728334E-2,1.988181E0,-1.68559E-2,1.6916245E-2,-5.643975E-1,4.4358756E-2,-1.4636439E-2,-7.8273684E-1,-1.14426866E-1,3.8355853E-2,-3.5295527E-2,-8.710313E-3,2.3153625E0,-7.360938E-1,-1.006742E-1,-8.462208E-3,-8.582249E-1,2.9283485E-1,-3.8167924E-2,9.040537E-3,1.3503909E-1,-2.5970092E-1,-8.6351883E-1,2.4321517E-2,-5.174628E-1,-5.9335153E-3,-4.8454802E-2,-9.101139E-3,3.775209E-2,-3.2483537E-2,1.2386216E-2,-1.134714E-2,-4.8320312E-2,-5.8428315E-3,-3.2586433E-2],"categories":[],"categories_nodes":[],"categories_segments":[],"categories_sizes":[],"default_left":[0,0,0,0,0,0,0,0,0,0,0,0,0,0,0,0,0,0,0,0,0,0,0,0,0,0,0,0,0,0,0,0,0,0,0,0,0,0,0,0,0,0,0,0,0,0,0,0,0,0,0],"id":3,"left_children":[1,3,5,7,-1,9,11,13,15,-1,17,19,-1,21,23,25,-1,27,-1,-1,29,-1,-1,31,33,-1,-1,-1,35,37,39,-1,41,43,-1,-1,-1,45,47,-1,49,-1,-1,-1,-1,-1,-1,-1,-1,-1,-1],"loss_changes":[1.095565E1,5.582367E0,1.5659681E1,3.411831E0,0E0,1.231518E1,3.210156E0,1.7586896E0,1.8872929E0,0E0,8.515499E0,1.6756995E0,0E0,1.4773408E0,1.4290822E0,2.5101275E0,0E0,7.0402412E0,0E0,0E0,1.0024228E0,0E0,0E0,2.4005747E-1,2.0318608E0,0E0,0E0,0E0,6.272587E0,3.6512136E-1,1.4291767E0,0E0,4.7230434E-1,1.2187608E0,0E0,0E0,0E0,8.4936726E-1,2.5421333E-1,0E0,1.012699E-1,0E0,0E0,0E0,0E0,0E0,0E0,0E0,0E0,0E0,0E0],"parents":[2147483647,0,0,1,1,2,2,3,3,5,5,6,6,7,7,8,8,10,10,11,11,13,13,14,14,15,15,17,17,20,20,23,23,24,24,28,28,29,29,30,30,32,32,33,33,37,37,38,38,40,40],"right_children":[2,4,6,8,-1,10,12,14,16,-1,18,20,-1,22,24,26,-1,28,-1,-1,30,-1,-1,32,34,-1,-1,-1,36,38,40,-1,42,44,-1,-1,-1,46,48,-1,50,-1,-1,-1,-1,-1,-1,-1,-1,-1,-1],"split_conditions":[1.1793306E-1,6.4458275E-1,-7.551211E-1,1.174216E0,-5.2520394E-2,-4.0412214E-1,3.8889328E-1,-7.3118496E-1,-3.8631395E-1,-3.916159E-2,1.00435E0,-8.4462863E-1,3.8156804E-2,-1.3382984E0,-6.880928E-1,-7.433081E-1,5.728334E-2,-5.8661735E-1,-1.68559E-2,1.6916245E-2,4.7229943E-1,4.4358756E-2,-1.4636439E-2,-1.5274532E0,-1.4831786E-1,3.8355853E-2,-3.5295527E-2,-8.710313E-3,-4.347186E-1,5.4249203E-1,1.3451676E0,-8.462208E-3,-1.4527981E0,6.608398E-1,-3.8167924E-2,9.040537E-3,1.3503909E-1,3.1227558E-3,-7.433081E-1,2.4321517E-2,1.9697084E0,-5.9335153E-3,-4.8454802E-2,-9.101139E-3,3.775209E-2,-3.2483537E-2,1.2386216E-2,-1.134714E-2,-4.8320312E-2,-5.8428315E-3,-3.2586433E-2],"split_indices":[0,3,1,1,0,11,14,0,5,0,3,10,0,5,7,5,0,10,0,0,13,0,0,9,5,0,0,0,3,0,9,0,10,14,0,0,0,10,5,0,7,0,0,0,0,0,0,0,0,0,0],"split_type":[0,0,0,0,0,0,0,0,0,0,0,0,0,0,0,0,0,0,0,0,0,0,0,0,0,0,0,0,0,0,0,0,0,0,0,0,0,0,0,0,0,0,0,0,0,0,0,0,0,0,0],"sum_hessian":[5.8021835E1,3.0137451E1,2.7884384E1,1.9976824E1,1.0160626E1,1.1956503E1,1.5927882E1,1.5661478E1,4.3153467E0,1.9992644E0,9.957239E0,1.42612505E1,1.6666312E0,2.4992468E0,1.3162231E1,2.6570935E0,1.6582531E0,8.380856E0,1.5763836E0,1.7403481E0,1.2520903E1,1.0227995E0,1.4764472E0,7.3199105E0,5.8423204E0,1.1477743E0,1.5093191E0,1.1628664E0,7.217989E0,8.708992E0,3.8119104E0,1.1572142E0,6.1626964E0,3.9267085E0,1.9156121E0,1.328659E0,5.88933E0,2.4790084E0,6.229984E0,1.5132277E0,2.2986827E0,1.0733523E0,5.089344E0,2.23585E0,1.6908584E0,1.2432272E0,1.2357812E0,1.3128668E0,4.917117E0,1.0465254E0,1.2521573E0],"tree_param":{"num_deleted":"0","num_feature":"16","num_nodes":"51","size_leaf_vector":"1"}},{"base_weights":[8.513572E-3,-4.084332E-1,3.9591572E-1,-1.152808E-1,-6.820211E-1,7.721904E-1,-7.687734E-1,-6.452437E-1,7.1252733E-1,-8.18454E-1,-6.851214E-2,1.0261056E0,-6.644422E-1,-8.5259646E-1,-4.779296E-3,-1.5307717E-1,-8.445076E-1,1.0772046E0,-1.4736508E-2,-4.2228165E-1,-4.5811385E-2,3.557096E-2,-3.5414275E-2,2.0647737E-1,1.7333993E0,-1.0068881E-2,-3.936599E-2,-6.3973176E-3,-4.8049994E-2,-2.3522984E-2,2.0439882E-2,-1.0278998E-2,-4.7517557E-2,-6.925568E-3,9.994418E-2,-3.9781686E-2,1.7066538E-2,5.174307E-1,-3.8836878E-2,-2.091538E-2,2.1861885E0,-1.5640694E-1,1.1075977E0,7.546821E-1,1.3184622E-1,2.0095753E-2,-2.7262142E-2,7.8241564E-2,3.639942E-3,9.7206384E-2,-3.4366995E-2],"categories":[],"categories_nodes":[],"categories_segments":[],"categories_sizes":[],"default_left":[0,0,0,0,0,0,0,0,0,0,0,0,0,0,0,0,0,0,0,0,0,0,0,0,0,0,0,0,0,0,0,0,0,0,0,0,0,0,0,0,0,0,0,0,0,0,0,0,0,0,0],"id":4,"left_children":[1,3,5,7,9,11,13,15,17,19,21,23,25,27,-1,29,31,33,-1,35,-1,-1,-1,37,39,-1,-1,-1,-1,-1,-1,-1,-1,-1,-1,-1,-1,41,-1,-1,43,45,47,49,-1,-1,-1,-1,-1,-1,-1],"loss_changes":[9.835086E0,2.2742152E0,1.4420803E1,7.200534E0,1.1970406E0,9.56279E0,3.815217E-1,8.409009E-1,2.694987E0,8.396053E-2,2.4074683E0,1.1863899E1,8.405483E-2,4.403205E-1,0E0,9.1854084E-1,2.6585484E-1,5.8422284E0,0E0,1.4864061E0,0E0,0E0,0E0,3.7346778E0,1.180825E1,0E0,0E0,0E0,0E0,0E0,0E0,0E0,0E0,0E0,0E0,0E0,0E0,3.7053533E0,0E0,0E0,4.0739517E0,1.3096634E0,2.184926E0,7.5993624E0,0E0,0E0,0E0,0E0,0E0,0E0,0E0],"parents":[2147483647,0,0,1,1,2,2,3,3,4,4,5,5,6,6,7,7,8,8,9,9,10,10,11,11,12,12,13,13,15,15,16,16,17,17,19,19,23,23,24,24,37,37,40,40,41,41,42,42,43,43],"right_children":[2,4,6,8,10,12,14,16,18,20,22,24,26,28,-1,30,32,34,-1,36,-1,-1,-1,38,40,-1,-1,-1,-1,-1,-1,-1,-1,-1,-1,-1,-1,42,-1,-1,44,46,48,50,-1,-1,-1,-1,-1,-1,-1],"split_conditions":[-1.1040766E-1,-7.2378355E-1,1.2045496E0,-1.0243376E0,2.7956343E-1,1.8032502E0,1.4951011E0,-1.4966371E0,-5.313292E-1,-1.010493E0,8.967826E-2,1.16316E0,-9.9369556E-1,1.5947773E-1,-4.779296E-3,-1.1943407E0,-1.4096972E0,-1.010493E0,-1.4736508E-2,-1.1947868E0,-4.5811385E-2,3.557096E-2,-3.5414275E-2,6.608805E-1,-4.269109E-1,-1.0068881E-2,-3.936599E-2,-6.3973176E-3,-4.8049994E-2,-2.3522984E-2,2.0439882E-2,-1.0278998E-2,-4.7517557E-2,-6.925568E-3,9.994418E-2,-3.9781686E-2,1.7066538E-2,-7.4951485E-2,-3.8836878E-2,-2.091538E-2,5.0029075E-1,1.2474622E-1,6.255378E-1,4.963731E-2,1.3184622E-1,2.0095753E-2,-2.7262142E-2,7.8241564E-2,3.639942E-3,9.7206384E-2,-3.4366995E-2],"split_indices":[13,13,6,13,10,5,7,13,10,10,5,4,6,13,0,7,5,10,0,10,0,0,0,6,6,0,0,0,0,0,0,0,0,0,0,0,0,3,0,0,9,9,9,9,0,0,0,0,0,0,0],"split_type":[0,0,0,0,0,0,0,0,0,0,0,0,0,0,0,0,0,0,0,0,0,0,0,0,0,0,0,0,0,0,0,0,0,0,0,0,0,0,0,0,0,0,0,0,0,0,0,0,0,0,0],"sum_hessian":[5.888743E1,2.8336067E1,3.0551361E1,1.4365086E1,1.3970982E1,2.3345997E1,7.2053638E0,8.892589E0,5.472497E0,1.1156033E1,2.8149486E0,2.0082335E1,3.2636628E0,6.1705236E0,1.0348401E0,3.0723448E0,5.820244E0,3.9668555E0,1.5056417E0,3.2611277E0,7.894905E0,1.2180582E0,1.5968903E0,9.900885E0,1.018145E1,1.2378122E0,2.0258508E0,1.0866711E0,5.0838523E0,2.0672996E0,1.0050453E0,1.2452939E0,4.57495E0,2.0769842E0,1.8898715E0,2.162087E0,1.0990407E0,7.8818817E0,2.0190024E0,1.7832749E0,8.398175E0,4.0232344E0,3.8586476E0,2.6515057E0,5.7466693E0,1.6378459E0,2.3853884E0,2.3209226E0,1.5377249E0,1.2621945E0,1.3893112E0],"tree_param":{"num_deleted":"0","num_feature":"16","num_nodes":"51","size_leaf_vector":"1"}},{"base_weights":[3.2482974E-2,-2.7975658E-1,5.870047E-1,-4.738625E-1,4.3024978E-1,1.7543147E0,-3.1788278E-1,-8.22479E-1,-1.1133886E-1,8.45E-1,-5.047148E-1,1.6960958E-1,2.1708732E0,-4.8312593E-1,3.7365746E-2,-5.9517543E-3,-4.331814E-2,1.5304326E-1,-4.401454E-2,-4.2823926E-2,7.448634E-2,-3.205454E-2,-5.794163E-3,1.9285833E-2,-6.28528E-3,1.2217008E-1,1.5644895E-2,2.5912666E-1,-7.188332E-1,-7.3337716E-1,6.3719946E-1,3.4651622E-2,-3.466836E-2,-1.6624361E-2,4.4522457E-2,-4.7366E-2,-2.9647744E-1,-8.0879545E-3,-4.317921E-2,9.1574836E-1,-1.7764345E-2,4.1593973E-2,-4.272912E-2,1.4871726E-2,6.704062E-2],"categories":[],"categories_nodes":[],"categories_segments":[],"categories_sizes":[],"default_left":[0,0,0,0,0,0,0,0,0,0,0,0,0,0,0,0,0,0,0,0,0,0,0,0,0,0,0,0,0,0,0,0,0,0,0,0,0,0,0,0,0,0,0,0,0],"id":5,"left_children":[1,3,5,7,9,11,13,15,17,19,21,23,25,27,-1,-1,-1,29,-1,31,-1,-1,-1,-1,-1,-1,-1,33,35,37,39,-1,-1,-1,-1,-1,41,-1,-1,43,-1,-1,-1,-1,-1],"loss_changes":[1.0448769E1,5.53441E0,2.350065E1,3.807353E0,3.8498127E0,5.9942513E0,2.6637259E0,3.7752342E-1,3.4444213E0,3.7782812E0,1.0275674E-1,2.4574971E-1,3.0570793E0,2.2739353E0,0E0,0E0,0E0,6.032163E0,0E0,2.252707E0,0E0,0E0,0E0,0E0,0E0,0E0,0E0,1.6447799E0,6.1870193E-1,2.3582935E-1,2.7916963E0,0E0,0E0,0E0,0E0,0E0,3.6883283E0,0E0,0E0,1.5055337E0,0E0,0E0,0E0,0E0,0E0],"parents":[2147483647,0,0,1,1,2,2,3,3,4,4,5,5,6,6,7,7,8,8,9,9,10,10,11,11,12,12,13,13,17,17,19,19,27,27,28,28,29,29,30,30,36,36,39,39],"right_children":[2,4,6,8,10,12,14,16,18,20,22,24,26,28,-1,-1,-1,30,-1,32,-1,-1,-1,-1,-1,-1,-1,34,36,38,40,-1,-1,-1,-1,-1,42,-1,-1,44,-1,-1,-1,-1,-1],"split_conditions":[5.4249203E-1,1.174216E0,-7.551211E-1,1.16316E0,3.876839E-1,-4.347186E-1,6.7558527E-1,-4.7434708E-1,1.2505515E0,-3.0662593E-1,1.0010823E0,-3.716879E-1,1.636653E0,-8.5259247E-1,3.7365746E-2,-5.9517543E-3,-4.331814E-2,1.0061908E-1,-4.401454E-2,-7.3118496E-1,7.448634E-2,-3.205454E-2,-5.794163E-3,1.9285833E-2,-6.28528E-3,1.2217008E-1,1.5644895E-2,-1.1269379E0,4.7229943E-1,-4.7434708E-1,1.097687E0,3.4651622E-2,-3.466836E-2,-1.6624361E-2,4.4522457E-2,-4.7366E-2,1.1606607E0,-8.0879545E-3,-4.317921E-2,-2.6947725E-1,-1.7764345E-2,4.1593973E-2,-4.272912E-2,1.4871726E-2,6.704062E-2],"split_indices":[0,1,1,4,7,3,2,2,2,0,9,7,5,13,0,0,0,2,0,0,0,0,0,0,0,0,0,9,13,2,8,0,0,0,0,0,5,0,0,9,0,0,0,0,0],"split_type":[0,0,0,0,0,0,0,0,0,0,0,0,0,0,0,0,0,0,0,0,0,0,0,0,0,0,0,0,0,0,0,0,0,0,0,0,0,0,0,0,0,0,0,0,0],"sum_hessian":[5.8398952E1,3.767849E1,2.0720465E1,2.9850397E1,7.828091E0,8.6383E0,1.2082165E1,1.4570291E1,1.5280107E1,5.4892726E0,2.3388186E0,2.0909414E0,6.5473585E0,1.093264E1,1.1495255E0,1.0735829E0,1.3496708E1,1.1966678E1,3.3134284E0,2.702021E0,2.7872517E0,1.2512145E0,1.087604E0,1.0306262E0,1.0603153E0,5.435055E0,1.1123035E0,2.6110306E0,8.3216095E0,4.0453925E0,7.9212856E0,1.2372279E0,1.464793E0,1.5922639E0,1.0187666E0,4.5936074E0,3.7280016E0,1.1665365E0,2.878856E0,6.245701E0,1.6755849E0,1.0713801E0,2.6566217E0,3.2369113E0,3.0087893E0],"tree_param":{"num_deleted":"0","num_feature":"16","num_nodes":"45","size_leaf_vector":"1"}},{"base_weights":[1.5641112E-2,-4.807544E-1,5.1654965E-1,-2.565531E-1,-8.5022897E-1,1.150412E0,-4.1848333E-3,-5.8389884E-1,4.553977E-1,-9.21186E-1,-5.072434E-3,-3.4807272E-2,1.4453534E0,5.7744294E-1,-1.7147306E-1,2.4276362E-1,-7.949583E-1,7.8030545E-1,-1.7554259E-2,-1.7003488E-2,-4.9909487E-2,1.7364719E0,-3.93401E-3,-2.1352625E-2,8.402606E-2,-7.828812E-1,2.2567174E-1,-2.975047E-2,4.071977E-2,-9.2566466E-1,-1.3146685E-1,1.031479E-1,6.366055E-2,-4.7016433E-3,1.952275E0,-4.5202486E-2,-9.063487E-3,6.258858E-1,-4.1534647E-1,-1.85371E-2,-5.0160974E-2,2.0456508E-2,-2.9732823E-2,-8.455921E-3,1.6814085E-2,1.06158435E-1,3.6447577E-2,-5.200793E-3,9.872399E-1,-3.6759045E-2,4.066472E-3,6.662912E-2,7.6847323E-3],"categories":[],"categories_nodes":[],"categories_segments":[],"categories_sizes":[],"default_left":[0,0,0,0,0,0,0,0,0,0,0,0,0,0,0,0,0,0,0,0,0,0,0,0,0,0,0,0,0,0,0,0,0,0,0,0,0,0,0,0,0,0,0,0,0,0,0,0,0,0,0,0,0],"id":6,"left_children":[1,3,5,7,9,11,13,15,17,19,-1,-1,21,23,25,27,29,31,-1,-1,-1,33,-1,-1,-1,35,37,-1,-1,39,41,43,-1,-1,45,-1,-1,47,49,-1,-1,-1,-1,-1,-1,-1,-1,-1,51,-1,-1,-1,-1],"loss_changes":[1.4780861E1,2.2564664E0,9.766031E0,4.932521E0,4.8299122E-1,8.272173E0,1.7756379E0,2.662692E0,2.073769E0,9.847641E-2,0E0,0E0,5.3848E0,5.236291E0,3.6133974E0,2.2301657E0,8.764868E-1,1.606458E0,0E0,0E0,0E0,4.1240215E0,0E0,0E0,0E0,2.5870967E-1,2.6603007E0,0E0,0E0,3.4772873E-2,1.009467E0,2.6516E-1,0E0,0E0,3.273697E-1,0E0,0E0,1.7271535E0,7.26565E-1,0E0,0E0,0E0,0E0,0E0,0E0,0E0,0E0,0E0,1.0084772E0,0E0,0E0,0E0,0E0],"parents":[2147483647,0,0,1,1,2,2,3,3,4,4,5,5,6,6,7,7,8,8,9,9,12,12,13,13,14,14,15,15,16,16,17,17,21,21,25,25,26,26,29,29,30,30,31,31,34,34,37,37,38,38,48,48],"right_children":[2,4,6,8,10,12,14,16,18,20,-1,-1,22,24,26,28,30,32,-1,-1,-1,34,-1,-1,-1,36,38,-1,-1,40,42,44,-1,-1,46,-1,-1,48,50,-1,-1,-1,-1,-1,-1,-1,-1,-1,52,-1,-1,-1,-1],"split_conditions":[1.1793306E-1,6.4458275E-1,-7.551211E-1,-4.033284E-1,1.477473E0,-2.8202125E-1,-8.452989E-1,-1.3382984E0,-1.4831786E-1,-6.3177717E-1,-5.072434E-3,-3.4807272E-2,1.4046308E0,-1.067274E0,4.293631E-2,-1.010493E0,6.606538E-1,2.8481564E-1,-1.7554259E-2,-1.7003488E-2,-4.9909487E-2,-5.8661735E-1,-3.93401E-3,-2.1352625E-2,8.402606E-2,4.638572E-1,1.7667061E0,-2.975047E-2,4.071977E-2,-1.3422219E0,-1.8188302E-1,-2.8828666E-1,6.366055E-2,-4.7016433E-3,1.39161E0,-4.5202486E-2,-9.063487E-3,5.4249203E-1,1.816169E0,-1.85371E-2,-5.0160974E-2,2.0456508E-2,-2.9732823E-2,-8.455921E-3,1.6814085E-2,1.06158435E-1,3.6447577E-2,-5.200793E-3,1.3739619E0,-3.6759045E-2,4.066472E-3,6.662912E-2,7.6847323E-3],"split_indices":[0,3,1,7,10,15,15,5,5,13,0,0,13,13,13,10,6,3,0,0,0,10,0,0,0,10,8,0,0,10,15,13,0,0,0,0,0,0,0,0,0,0,0,0,0,0,0,0,13,0,0,0,0],"split_type":[0,0,0,0,0,0,0,0,0,0,0,0,0,0,0,0,0,0,0,0,0,0,0,0,0,0,0,0,0,0,0,0,0,0,0,0,0,0,0,0,0,0,0,0,0,0,0,0,0,0,0,0,0],"sum_hessian":[5.7446007E1,2.8873192E1,2.8572815E1,1.9023745E1,9.849447E0,1.2341255E1,1.6231562E1,1.3155073E1,5.8686714E0,8.786553E0,1.0628932E0,1.5123718E0,1.0828883E1,3.078041E0,1.315352E1,2.6450226E0,1.0510051E1,4.2064695E0,1.6622016E0,1.6618112E0,7.1247425E0,8.975083E0,1.8537993E0,1.9317691E0,1.146272E0,4.7970862E0,8.356434E0,1.0561914E0,1.5888312E0,8.450232E0,2.0598185E0,2.281454E0,1.9250154E0,1.0060172E0,7.9690666E0,3.574454E0,1.2226323E0,5.1590395E0,3.197394E0,1.7449691E0,6.7052627E0,1.0043429E0,1.0554756E0,1.1790646E0,1.1023896E0,6.3468604E0,1.622206E0,1.9441624E0,3.2148771E0,1.6528431E0,1.5445508E0,1.8498018E0,1.3650753E0],"tree_param":{"num_deleted":"0","num_feature":"16","num_nodes":"53","size_leaf_vector":"1"}},{"base_weights":[5.422747E-3,-3.976906E-1,4.016044E-1,-1.3434237E-1,-9.1438204E-1,1.0058619E0,-7.803345E-2,-4.3764555E-1,4.5885348E-1,-5.0161768E-2,-4.4547846E-3,-3.7397493E-2,1.3268291E0,7.7019995E-1,-3.6036664E-1,4.5798823E-1,-6.9713753E-1,9.481151E-1,-1.6098924E-1,-2.136213E-2,1.7214199E0,-4.7518682E-1,1.0018498E-1,-3.9564993E-2,-2.6634108E-2,-3.2022692E-2,6.1547186E-2,-7.2930823E-3,-7.430627E-1,3.062124E-3,7.189119E-2,-4.6773422E-1,1.8894E-2,2.7074924E-2,1.9581758E0,-4.4613467E-3,-3.0721733E-2,3.1908605E-2,-2.9263878E-1,-9.346159E-3,-7.9860044E-1,-4.8097554E-3,-3.0112265E-2,1.0754883E-1,1.8012716E-2,-4.750589E-1,1.947681E-2,-4.315601E-2,-1.2574712E-2,6.3090115E-3,-3.4570053E-2],"categories":[],"categories_nodes":[],"categories_segments":[],"categories_sizes":[],"default_left":[0,0,0,0,0,0,0,0,0,0,0,0,0,0,0,0,0,0,0,0,0,0,0,0,0,0,0,0,0,0,0,0,0,0,0,0,0,0,0,0,0,0,0,0,0,0,0,0,0,0,0],"id":7,"left_children":[1,3,5,7,9,11,13,15,17,-1,-1,-1,19,21,23,25,27,29,31,-1,33,35,-1,-1,37,-1,-1,-1,39,-1,-1,41,-1,-1,43,-1,-1,-1,45,-1,47,-1,-1,-1,-1,49,-1,-1,-1,-1,-1],"loss_changes":[9.436211E0,3.863048E0,8.712896E0,3.9027467E0,6.231842E-1,8.453998E0,4.477286E0,3.6023772E0,2.4117541E0,0E0,0E0,0E0,8.7401905E0,8.169281E0,1.9691211E0,3.9951358E0,1.7895412E-1,1.7830932E0,8.612323E-1,0E0,1.6326504E0,1.142596E-1,0E0,0E0,1.7489003E0,0E0,0E0,0E0,1.6676855E-1,0E0,0E0,9.6279144E-2,0E0,0E0,1.5809441E0,0E0,0E0,0E0,1.055498E0,0E0,1.0054302E-1,0E0,0E0,0E0,0E0,8.637123E-1,0E0,0E0,0E0,0E0,0E0],"parents":[2147483647,0,0,1,1,2,2,3,3,4,4,5,5,6,6,7,7,8,8,12,12,13,13,14,14,15,15,16,16,17,17,18,18,20,20,21,21,24,24,28,28,31,31,34,34,38,38,40,40,45,45],"right_children":[2,4,6,8,10,12,14,16,18,-1,-1,-1,20,22,24,26,28,30,32,-1,34,36,-1,-1,38,-1,-1,-1,40,-1,-1,42,-1,-1,44,-1,-1,-1,46,-1,48,-1,-1,-1,-1,50,-1,-1,-1,-1,-1],"split_conditions":[1.1793306E-1,6.4458275E-1,-7.551211E-1,-4.033284E-1,2.4434185E0,-1.1409886E0,-8.157899E-1,-7.3118496E-1,-3.8389418E-1,-5.0161768E-2,-4.4547846E-3,-3.7397493E-2,-5.128998E-1,-9.5804113E-1,9.348361E-2,-1.1210693E0,-4.7434708E-1,-3.716879E-1,1.9356328E-1,-2.136213E-2,-4.347186E-1,-1.5899783E0,1.0018498E-1,-3.9564993E-2,1.6613737E-2,-3.2022692E-2,6.1547186E-2,-7.2930823E-3,-1.4527981E0,3.062124E-3,7.189119E-2,-3.716879E-1,1.8894E-2,2.7074924E-2,1.3764303E0,-4.4613467E-3,-3.0721733E-2,3.1908605E-2,1.174216E0,-9.346159E-3,1.174216E0,-4.8097554E-3,-3.0112265E-2,1.0754883E-1,1.8012716E-2,-7.4951485E-2,1.947681E-2,-4.315601E-2,-1.2574712E-2,6.3090115E-3,-3.4570053E-2],"split_indices":[0,3,1,7,3,1,13,0,10,0,0,0,10,9,9,10,2,7,9,0,3,9,0,0,1,0,0,0,10,0,0,7,0,0,9,0,0,0,1,0,1,0,0,0,0,3,0,0,0,0,0],"split_type":[0,0,0,0,0,0,0,0,0,0,0,0,0,0,0,0,0,0,0,0,0,0,0,0,0,0,0,0,0,0,0,0,0,0,0,0,0,0,0,0,0,0,0,0,0,0,0,0,0,0,0],"sum_hessian":[5.7084793E1,2.8292982E1,2.8791811E1,1.957564E1,8.717342E0,1.2255259E1,1.6536552E1,1.3126327E1,6.4493136E0,7.6753635E0,1.0419788E0,1.6900849E0,1.0565174E1,3.6981022E0,1.28384495E1,2.7769098E0,1.0349417E1,3.308334E0,3.1409793E0,1.9250435E0,8.64013E0,2.1460927E0,1.5520093E0,5.0048547E0,7.833595E0,1.2177687E0,1.5591413E0,1.1170194E0,9.232397E0,1.577147E0,1.7311871E0,2.0857172E0,1.0552621E0,1.9932951E0,6.6468353E0,1.0040094E0,1.1420834E0,1.8388325E0,5.9947624E0,1.2346507E0,7.9977465E0,1.0102915E0,1.0754259E0,5.622349E0,1.0244864E0,4.9694853E0,1.0252768E0,6.637395E0,1.3603517E0,1.4252664E0,3.544219E0],"tree_param":{"num_deleted":"0","num_feature":"16","num_nodes":"51","size_leaf_vector":"1"}},{"base_weights":[-8.745949E-2,-4.096999E-1,4.8109406E-1,-6.683967E-1,-1.377911E-1,-4.0091845E-1,1.0727354E0,-4.7917667E-1,-4.8169706E-2,5.89587E-1,-3.742017E-1,9.5115304E-2,-6.580746E-1,1.4623275E0,-5.1482713E-1,-6.291818E-1,1.6864885E-2,-6.318015E-3,5.9108343E-2,-6.7816925E-1,3.3730063E-1,-1.8333403E-2,2.9245887E-2,-4.2487796E-2,-2.4759822E-1,3.0406672E-1,1.8494112E0,-3.240719E-2,-5.671376E-3,-3.7287986E-1,-4.570046E-2,-1.3517842E-2,1.4320793E-2,-8.1003493E-1,2.2268896E-3,-2.0250697E-2,8.4971493E-1,2.003159E-2,-3.4405064E-2,6.0124587E-2,-3.645796E-2,2.035679E0,1.670277E-2,-4.276924E-2,8.10308E-2,-4.9688434E-3,-4.4311296E-2,6.4693175E-2,5.4443656E-3,2.1977415E0,3.3471767E-2,-2.1827368E-2,2.8917788E-2,1.24072745E-1,3.134047E-2],"categories":[],"categories_nodes":[],"categories_segments":[],"categories_sizes":[],"default_left":[0,0,0,0,0,0,0,0,0,0,0,0,0,0,0,0,0,0,0,0,0,0,0,0,0,0,0,0,0,0,0,0,0,0,0,0,0,0,0,0,0,0,0,0,0,0,0,0,0,0,0,0,0,0,0],"id":8,"left_children":[1,3,5,7,9,11,13,15,-1,17,19,21,23,25,27,29,-1,31,-1,33,35,-1,-1,-1,37,39,41,-1,-1,43,-1,-1,-1,45,-1,-1,47,-1,-1,-1,-1,49,-1,-1,51,-1,-1,-1,-1,53,-1,-1,-1,-1,-1],"loss_changes":[1.0802131E1,2.5446668E0,1.15969715E1,5.961132E-1,3.579945E0,1.251346E0,8.842828E0,1.8698137E0,0E0,1.8367004E0,3.5496957E0,1.1317631E0,2.8243947E-1,4.263178E0,1.0398519E-1,5.193281E-1,0E0,3.5395265E-1,0E0,1.0930581E0,2.3465219E0,0E0,0E0,0E0,1.2479903E0,4.490325E0,1.5414486E0,0E0,0E0,1.7975265E0,0E0,0E0,0E0,4.2261934E-1,0E0,0E0,9.900789E-1,0E0,0E0,0E0,0E0,3.71418E-2,0E0,0E0,1.5341957E0,0E0,0E0,0E0,0E0,9.6367264E-1,0E0,0E0,0E0,0E0,0E0],"parents":[2147483647,0,0,1,1,2,2,3,3,4,4,5,5,6,6,7,7,9,9,10,10,11,11,12,12,13,13,14,14,15,15,17,17,19,19,20,20,24,24,25,25,26,26,29,29,33,33,36,36,41,41,44,44,49,49],"right_children":[2,4,6,8,10,12,14,16,-1,18,20,22,24,26,28,30,-1,32,-1,34,36,-1,-1,-1,38,40,42,-1,-1,44,-1,-1,-1,46,-1,-1,48,-1,-1,-1,-1,50,-1,-1,52,-1,-1,-1,-1,54,-1,-1,-1,-1,-1],"split_conditions":[5.4249203E-1,1.3516033E-1,-4.347186E-1,2.962821E-1,-4.5761168E-1,-8.280574E-1,1.8032502E0,-1.16541415E-1,-4.8169706E-2,-7.3405236E-1,1.1793306E-1,-9.323313E-1,2.7956343E-1,5.316019E-1,1.1968019E0,-3.8631395E-1,1.6864885E-2,-6.042376E-1,5.9108343E-2,1.364117E0,1.16316E0,-1.8333403E-2,2.9245887E-2,-4.2487796E-2,5.560041E-1,2.3247592E-1,1.7833298E0,-3.240719E-2,-5.671376E-3,-8.623062E-1,-4.570046E-2,-1.3517842E-2,1.4320793E-2,-1.4905033E0,2.2268896E-3,-2.0250697E-2,7.421848E-1,2.003159E-2,-3.4405064E-2,6.0124587E-2,-3.645796E-2,6.4458275E-1,1.670277E-2,-4.276924E-2,4.8771203E-2,-4.9688434E-3,-4.4311296E-2,6.4693175E-2,5.4443656E-3,1.3739619E0,3.3471767E-2,-2.1827368E-2,2.8917788E-2,1.24072745E-1,3.134047E-2],"split_indices":[0,12,3,11,10,13,5,13,0,10,0,13,10,15,11,5,0,11,0,3,4,0,0,0,10,5,15,0,0,5,0,0,0,13,0,0,13,0,0,0,0,3,0,0,6,0,0,0,0,13,0,0,0,0,0],"split_type":[0,0,0,0,0,0,0,0,0,0,0,0,0,0,0,0,0,0,0,0,0,0,0,0,0,0,0,0,0,0,0,0,0,0,0,0,0,0,0,0,0,0,0,0,0,0,0,0,0,0,0,0,0,0,0],"sum_hessian":[5.6884247E1,3.6484974E1,2.0399273E1,1.7949486E1,1.853549E1,8.319305E0,1.20799675E1,1.2534091E1,5.415394E0,4.1801796E0,1.435531E1,3.0555391E0,5.2637663E0,9.762989E0,2.3169785E0,1.0782492E1,1.7515996E0,2.577527E0,1.6026525E0,1.0091063E1,4.264248E0,1.7021533E0,1.3533859E0,2.8586736E0,2.4050927E0,2.8927176E0,6.8702717E0,1.2778552E0,1.0391232E0,6.890879E0,3.8916128E0,1.3953747E0,1.1821525E0,8.431763E0,1.6593004E0,1.8270577E0,2.4371903E0,1.0097259E0,1.3953667E0,1.4596658E0,1.4330518E0,5.812439E0,1.0578327E0,2.9114952E0,3.9793837E0,1.0395794E0,7.392183E0,1.056985E0,1.3802053E0,4.6520195E0,1.1604193E0,2.009871E0,1.9695127E0,3.4494379E0,1.2025818E0],"tree_param":{"num_deleted":"0","num_feature":"16","num_nodes":"55","size_leaf_vector":"1"}},{"base_weights":[-3.9040063E-2,1.0672866E-1,-8.850454E-1,-4.0923178E-1,5.327625E-1,-4.9131527E-3,-4.892167E-2,-7.291856E-2,-8.313113E-1,1.163241E0,-8.515492E-2,1.063991E0,-4.3226576E-1,-8.963495E-1,-1.2982673E-2,-5.9682135E-3,1.3792354E0,-3.1206948E-1,6.0789543E-1,-7.0496E-3,8.137127E-2,-6.1865294E-1,2.1935456E-2,-1.342009E-2,-4.9227294E-2,-4.734673E-3,1.527964E0,-6.2130606E-1,2.0806172E-1,-2.9358884E-2,6.093922E-2,-2.3306726E-1,-8.006218E-1,8.909016E-2,3.4354848E-1,-4.48452E-2,-1.9612595E-1,6.0062575E-1,-1.8870762E-2,-3.9110642E-2,3.1478424E-2,-6.0060485E-3,-4.614655E-2,5.2329846E-2,-2.883589E-2,-3.049987E-2,7.137373E-3,6.0051423E-3,4.4650733E-2],"categories":[],"categories_nodes":[],"categories_segments":[],"categories_sizes":[],"default_left":[0,0,0,0,0,0,0,0,0,0,0,0,0,0,0,0,0,0,0,0,0,0,0,0,0,0,0,0,0,0,0,0,0,0,0,0,0,0,0,0,0,0,0,0,0,0,0,0,0],"id":9,"left_children":[1,3,5,7,9,-1,-1,11,13,15,17,19,21,23,-1,-1,25,27,29,-1,-1,31,-1,-1,-1,-1,33,35,37,-1,-1,39,41,-1,43,-1,45,47,-1,-1,-1,-1,-1,-1,-1,-1,-1,-1,-1],"loss_changes":[7.139083E0,1.1125459E1,5.286665E-1,3.2053018E0,1.0856722E1,0E0,0E0,6.139028E0,1.4301825E-1,3.969967E0,2.5293615E0,2.6921792E0,2.1015193E0,2.1571493E-1,0E0,0E0,2.739275E0,2.038247E0,3.6422915E0,0E0,0E0,4.9407506E-1,0E0,0E0,0E0,0E0,2.6376953E0,7.2568107E-1,1.4159573E0,0E0,0E0,2.6341164E0,4.0351462E-1,0E0,2.6394234E0,0E0,6.9095945E-1,3.821634E-1,0E0,0E0,0E0,0E0,0E0,0E0,0E0,0E0,0E0,0E0,0E0],"parents":[2147483647,0,0,1,1,2,2,3,3,4,4,7,7,8,8,9,9,10,10,11,11,12,12,13,13,16,16,17,17,18,18,21,21,26,26,27,27,28,28,31,31,32,32,34,34,36,36,37,37],"right_children":[2,4,6,8,10,-1,-1,12,14,16,18,20,22,24,-1,-1,26,28,30,-1,-1,32,-1,-1,-1,-1,34,36,38,-1,-1,40,42,-1,44,-1,46,48,-1,-1,-1,-1,-1,-1,-1,-1,-1,-1,-1],"split_conditions":[1.2505515E0,-2.8828666E-1,1.9622436E-1,-4.5761168E-1,-7.551211E-1,-4.9131527E-3,-4.892167E-2,-9.9369556E-1,-4.385706E-1,-1.1409886E0,1.174216E0,-1.1210693E0,1.3989972E0,-1.0493133E0,-1.2982673E-2,-5.9682135E-3,1.3516033E-1,6.7558527E-1,-2.9319799E-2,-7.0496E-3,8.137127E-2,-7.513933E-1,2.1935456E-2,-1.342009E-2,-4.9227294E-2,-4.734673E-3,1.3989972E0,1.16316E0,6.965131E-1,-2.9358884E-2,6.093922E-2,-1.010493E0,-7.433081E-1,8.909016E-2,-7.4951485E-2,-4.48452E-2,5.0029075E-1,2.5761786E-1,-1.8870762E-2,-3.9110642E-2,3.1478424E-2,-6.0060485E-3,-4.614655E-2,5.2329846E-2,-2.883589E-2,-3.049987E-2,7.137373E-3,6.0051423E-3,4.4650733E-2],"split_indices":[2,13,11,10,1,0,0,6,9,1,1,10,12,2,0,0,12,2,5,0,0,9,0,0,0,0,12,4,11,0,0,10,5,0,3,0,9,13,0,0,0,0,0,0,0,0,0,0,0],"split_type":[0,0,0,0,0,0,0,0,0,0,0,0,0,0,0,0,0,0,0,0,0,0,0,0,0,0,0,0,0,0,0,0,0,0,0,0,0,0,0,0,0,0,0,0,0,0,0,0,0],"sum_hessian":[5.612422E1,4.8620617E1,7.5036035E0,2.2007385E1,2.6613234E1,1.0138918E0,6.4897118E0,1.2900788E1,9.106596E0,1.27359085E1,1.3877325E1,2.627369E0,1.0273419E1,7.6663985E0,1.4401973E0,1.9001168E0,1.0835792E1,1.086853E1,3.008795E0,1.0759861E0,1.5513828E0,8.701099E0,1.5723202E0,1.4420938E0,6.2243047E0,1.0264806E0,9.809311E0,6.694119E0,4.174411E0,1.0308914E0,1.9779036E0,3.5210106E0,5.1800885E0,7.662698E0,2.146613E0,3.3883512E0,3.3057675E0,2.4834058E0,1.6910051E0,2.2083962E0,1.3126144E0,1.0911701E0,4.0889187E0,1.1391042E0,1.0075086E0,1.1280221E0,2.1777456E0,1.4731462E0,1.0102597E0],"tree_param":{"num_deleted":"0","num_feature":"16","num_nodes":"49","size_leaf_vector":"1"}},{"base_weights":[-4.823878E-2,-4.335922E-1,5.9554714E-1,-2.0999128E-1,-8.9500964E-1,1.331333E0,-6.560262E-2,-3.51194E-1,3.247482E-1,-4.792335E-2,-8.204056E-3,-1.0609613E-2,1.5437758E0,5.7381374E-1,-2.781288E-1,1.227645E-1,-4.880454E-1,-1.3377556E-1,4.1298628E-2,2.7573848E-1,9.504698E-2,-3.1956606E-2,7.5954966E-2,-4.9281773E-1,4.0753946E-2,7.778089E-1,-3.721402E-2,-7.661739E-1,4.640107E-2,1.8843614E-2,-3.298337E-2,4.129046E-2,-1.6668178E-2,-4.1821834E-2,-2.2199585E-1,5.6658E-2,-3.8093724E-3,-9.260329E-3,-8.182248E-1,3.8088217E-2,-4.6265885E-1,1.9826666E-1,-4.5749256E-1,-4.8096556E-2,-2.0437207E-2,-3.715151E-2,7.376811E-4,2.011898E-2,-5.263351E-3,2.2867888E-3,-3.8015746E-2],"categories":[],"categories_nodes":[],"categories_segments":[],"categories_sizes":[],"default_left":[0,0,0,0,0,0,0,0,0,0,0,0,0,0,0,0,0,0,0,0,0,0,0,0,0,0,0,0,0,0,0,0,0,0,0,0,0,0,0,0,0,0,0,0,0,0,0,0,0,0,0],"id":10,"left_children":[1,3,5,7,9,11,13,15,17,-1,-1,-1,19,21,23,25,27,29,-1,31,-1,-1,-1,33,-1,35,-1,37,39,-1,-1,-1,-1,-1,41,-1,-1,-1,43,-1,45,47,49,-1,-1,-1,-1,-1,-1,-1,-1],"loss_changes":[1.4869231E1,3.672905E0,1.1020218E1,2.1159372E0,3.9507198E-1,3.8308659E0,1.8977292E0,1.4515076E0,1.5027661E0,0E0,0E0,0E0,3.7837715E0,5.0036445E0,2.8128254E0,3.7628083E0,2.5400372E0,1.3293401E0,0E0,1.3675774E0,0E0,0E0,0E0,6.714077E-1,0E0,1.2038105E0,0E0,1.8529844E-1,2.7959363E0,0E0,0E0,0E0,0E0,0E0,7.351982E-1,0E0,0E0,0E0,1.9116974E-1,0E0,6.189717E-1,2.3046781E-1,7.1682537E-1,0E0,0E0,0E0,0E0,0E0,0E0,0E0,0E0],"parents":[2147483647,0,0,1,1,2,2,3,3,4,4,5,5,6,6,7,7,8,8,12,12,13,13,14,14,15,15,16,16,17,17,19,19,23,23,25,25,27,27,28,28,34,34,38,38,40,40,41,41,42,42],"right_children":[2,4,6,8,10,12,14,16,18,-1,-1,-1,20,22,24,26,28,30,-1,32,-1,-1,-1,34,-1,36,-1,38,40,-1,-1,-1,-1,-1,42,-1,-1,-1,44,-1,46,48,50,-1,-1,-1,-1,-1,-1,-1,-1],"split_conditions":[5.4249203E-1,2.0867631E-1,-7.551211E-1,1.174216E0,1.6617668E0,-4.0412214E-1,-7.63977E-1,-7.3118496E-1,-3.0662593E-1,-4.792335E-2,-8.204056E-3,-1.0609613E-2,1.16316E0,-9.5804113E-1,6.7558527E-1,-2.0400664E-1,-2.8206092E-1,-7.3118496E-1,4.1298628E-2,-4.269109E-1,9.504698E-2,-3.1956606E-2,7.5954966E-2,4.638572E-1,4.0753946E-2,-3.8631395E-1,-3.721402E-2,-1.5274532E0,1.9622436E-1,1.8843614E-2,-3.298337E-2,4.129046E-2,-1.6668178E-2,-4.1821834E-2,4.193244E-1,5.6658E-2,-3.8093724E-3,-9.260329E-3,-6.880928E-1,3.8088217E-2,-2.733179E-1,8.324448E-1,-4.7434708E-1,-4.8096556E-2,-2.0437207E-2,-3.715151E-2,7.376811E-4,2.011898E-2,-5.263351E-3,2.2867888E-3,-3.8015746E-2],"split_indices":[0,5,1,1,10,11,9,0,0,0,0,0,4,9,2,11,9,0,0,6,0,0,0,10,0,5,0,9,11,0,0,0,0,0,7,0,0,0,7,0,10,10,2,0,0,0,0,0,0,0,0],"split_type":[0,0,0,0,0,0,0,0,0,0,0,0,0,0,0,0,0,0,0,0,0,0,0,0,0,0,0,0,0,0,0,0,0,0,0,0,0,0,0,0,0,0,0,0,0,0,0,0,0,0,0],"sum_hessian":[5.7895134E1,3.6420982E1,2.1474152E1,2.5512726E1,1.09082575E1,9.683659E0,1.1790494E1,2.0454718E1,5.0580077E0,9.750448E0,1.1578095E0,1.1717036E0,8.511954E0,2.5171897E0,9.273304E0,4.605923E0,1.5848795E1,3.0243826E0,2.0336251E0,2.2600672E0,6.2518873E0,1.2443599E0,1.2728299E0,8.210157E0,1.0631465E0,2.682351E0,1.923572E0,1.01388855E1,5.709909E0,1.6781968E0,1.3461857E0,1.0006312E0,1.2594359E0,2.6981857E0,5.511972E0,1.6633387E0,1.0190125E0,1.2084893E0,8.930396E0,2.1675358E0,3.542373E0,2.0362375E0,3.4757345E0,5.6117992E0,3.318597E0,1.8812163E0,1.6611565E0,1.0227995E0,1.0134379E0,1.6247323E0,1.8510022E0],"tree_param":{"num_deleted":"0","num_feature":"16","num_nodes":"51","size_leaf_vector":"1"}},{"base_weights":[2.432816E-2,-2.9260626E-1,4.829941E-1,-1.0061341E-1,-7.2703636E-1,-9.04437E-2,8.257468E-1,-2.2992072E-1,4.2476314E-1,-8.7650156E-1,-2.1674286E-3,1.8490185E-1,-3.86508E-2,1.1390502E0,-3.449665E-1,3.4406822E-2,-3.2829103E-1,-7.8052916E-2,5.491652E-2,-4.8771553E-2,-9.222309E-3,-3.7290677E-2,6.192137E-1,2.8476346E-1,1.3951048E0,-3.5295516E-2,9.495142E-3,1.199063E-1,-5.21039E-1,1.2222012E-2,-1.6121777E-2,-1.3673134E-2,9.918692E-1,3.0395672E-2,-1.2591737E-2,6.226059E-3,8.8530295E-2,-4.9418324E-1,5.8303744E-1,-4.5073137E-2,-2.6470485E-1,6.408366E-2,1.8027358E-2,-6.0462295E-3,-3.1041497E-2,6.908813E-2,-6.370842E-3,1.51887685E-2,-2.2406293E-2],"categories":[],"categories_nodes":[],"categories_segments":[],"categories_sizes":[],"default_left":[0,0,0,0,0,0,0,0,0,0,0,0,0,0,0,0,0,0,0,0,0,0,0,0,0,0,0,0,0,0,0,0,0,0,0,0,0,0,0,0,0,0,0,0,0,0,0,0,0],"id":11,"left_children":[1,3,5,7,9,11,13,15,17,19,-1,21,-1,23,25,-1,27,29,-1,-1,-1,-1,31,33,35,-1,-1,37,39,-1,-1,-1,41,-1,-1,-1,-1,43,45,-1,47,-1,-1,-1,-1,-1,-1,-1,-1],"loss_changes":[8.013751E0,2.6499887E0,4.4983516E0,1.7147007E0,9.6813154E-1,1.894798E0,5.5960627E0,2.009544E0,1.7969096E0,3.6968803E-1,0E0,3.472822E0,0E0,2.1014872E0,8.6041415E-1,0E0,1.6620406E0,3.8039565E-1,0E0,0E0,0E0,0E0,2.142541E0,8.2775867E-1,3.8504143E0,0E0,0E0,2.1029322E0,1.0422196E0,0E0,0E0,0E0,3.035221E-1,0E0,0E0,0E0,0E0,8.01993E-2,2.5005999E0,0E0,1.1019838E0,0E0,0E0,0E0,0E0,0E0,0E0,0E0,0E0],"parents":[2147483647,0,0,1,1,2,2,3,3,4,4,5,5,6,6,7,7,8,8,9,9,11,11,13,13,14,14,16,16,17,17,22,22,23,23,24,24,27,27,28,28,32,32,37,37,38,38,40,40],"right_children":[2,4,6,8,10,12,14,16,18,20,-1,22,-1,24,26,-1,28,30,-1,-1,-1,-1,32,34,36,-1,-1,38,40,-1,-1,-1,42,-1,-1,-1,-1,44,46,-1,48,-1,-1,-1,-1,-1,-1,-1,-1],"split_conditions":[5.4249203E-1,2.0867631E-1,-4.347186E-1,1.1793306E-1,1.6533036E0,-2.9319799E-2,1.4328461E0,-4.7434708E-1,-2.8202125E-1,1.2010323E0,-2.1674286E-3,-9.704717E-1,-3.86508E-2,-4.269109E-1,1.9382075E0,3.4406822E-2,-7.3118496E-1,-8.7659204E-1,5.491652E-2,-4.8771553E-2,-9.222309E-3,-3.7290677E-2,1.3516033E-1,1.0167385E0,1.16316E0,-3.5295516E-2,9.495142E-3,-8.4462863E-1,-8.7793577E-1,1.2222012E-2,-1.6121777E-2,-1.3673134E-2,3.1227558E-3,3.0395672E-2,-1.2591737E-2,6.226059E-3,8.8530295E-2,-6.243101E-1,-4.5761168E-1,-4.5073137E-2,-1.010493E0,6.408366E-2,1.8027358E-2,-6.0462295E-3,-3.1041497E-2,6.908813E-2,-6.370842E-3,1.51887685E-2,-2.2406293E-2],"split_indices":[0,5,3,0,7,5,15,2,15,10,0,15,0,6,10,0,0,15,0,0,0,0,12,10,4,0,0,10,7,0,0,0,10,0,0,0,0,5,10,0,10,0,0,0,0,0,0,0,0],"split_type":[0,0,0,0,0,0,0,0,0,0,0,0,0,0,0,0,0,0,0,0,0,0,0,0,0,0,0,0,0,0,0,0,0,0,0,0,0,0,0,0,0,0,0,0,0,0,0,0,0],"sum_hessian":[5.3155495E1,3.1648611E1,2.1506884E1,2.2802729E1,8.845883E0,8.321251E0,1.3185633E1,1.8750233E1,4.052496E0,7.0275307E0,1.8183526E0,6.4489098E0,1.8723413E0,1.0423237E1,2.7623959E0,1.2344216E0,1.751581E1,2.826581E0,1.2259148E0,5.790332E0,1.2371988E0,1.8236532E0,4.6252565E0,2.8907635E0,7.5324736E0,1.458429E0,1.303967E0,5.3810816E0,1.2134729E1,1.2184498E0,1.6081312E0,1.4405866E0,3.18467E0,1.7212752E0,1.1694882E0,2.0220559E0,5.5104175E0,2.2846706E0,3.096411E0,3.871828E0,8.262901E0,1.4766722E0,1.7079978E0,1.0740379E0,1.2106326E0,1.0128353E0,2.0835757E0,1.85561E0,6.4072914E0],"tree_param":{"num_deleted":"0","num_feature":"16","num_nodes":"49","size_leaf_vector":"1"}},{"base_weights":[-2.3874596E-2,-3.2108578E-1,4.4257876E-1,-1.1034282E-1,-8.169215E-1,-1.5880588E-1,7.900825E-1,-4.3054172E-1,3.396936E-1,-8.888748E-1,-4.823582E-3,1.38296E-1,-5.9911376E-1,1.0646544E0,-4.962641E-2,1.1037597E-1,-5.704452E-1,5.054426E-1,-3.1375404E-2,-1.1355943E-2,-4.876714E-2,-1.6348648E-1,4.131416E-2,-4.6524066E-3,-3.7566792E-2,2.3426129E-1,1.357443E0,-3.64603E-2,5.005592E-1,-3.214152E-2,3.4442306E-2,-3.189173E-1,-7.8474617E-1,-8.624118E-2,8.7704015E-1,2.662173E-1,-3.455435E-2,-1.7150855E-2,3.4343015E-2,-4.201513E-3,8.883004E-2,4.533133E-2,-6.7400374E-3,-7.6376784E-1,3.7898734E-2,-4.4948E-2,-9.36558E-3,4.483703E-2,-3.98505E-2,1.0790021E0,1.2845454E-2,-1.3729802E-2,3.8611896E-2,-4.4022575E-2,-1.0519779E-2,8.087592E-2,3.2881263E-3],"categories":[],"categories_nodes":[],"categories_segments":[],"categories_sizes":[],"default_left":[0,0,0,0,0,0,0,0,0,0,0,0,0,0,0,0,0,0,0,0,0,0,0,0,0,0,0,0,0,0,0,0,0,0,0,0,0,0,0,0,0,0,0,0,0,0,0,0,0,0,0,0,0,0,0,0,0],"id":12,"left_children":[1,3,5,7,9,11,13,15,17,19,-1,21,23,25,27,29,31,33,-1,-1,-1,35,-1,-1,-1,37,39,-1,41,-1,-1,43,45,47,49,51,-1,-1,-1,-1,-1,-1,-1,53,-1,-1,-1,-1,-1,55,-1,-1,-1,-1,-1,-1,-1],"loss_changes":[7.934454E0,3.5579133E0,4.78495E0,3.8431878E0,4.4593477E-1,1.259927E0,3.3493948E0,1.2307177E0,2.1165538E0,3.0510902E-1,0E0,1.4192538E0,2.2380555E-1,2.3125134E0,2.039561E0,2.1894803E0,4.1931534E-1,2.3042212E0,0E0,0E0,0E0,1.3479372E0,0E0,0E0,0E0,1.2882684E0,4.8562984E0,0E0,9.1373277E-1,0E0,0E0,4.123605E0,2.4258113E-1,4.0827036E0,5.1375914E-1,1.1839565E0,0E0,0E0,0E0,0E0,0E0,0E0,0E0,1.8502259E-1,0E0,0E0,0E0,0E0,0E0,2.3225355E0,0E0,0E0,0E0,0E0,0E0,0E0,0E0],"parents":[2147483647,0,0,1,1,2,2,3,3,4,4,5,5,6,6,7,7,8,8,9,9,11,11,12,12,13,13,14,14,15,15,16,16,17,17,21,21,25,25,26,26,28,28,31,31,32,32,33,33,34,34,35,35,43,43,49,49],"right_children":[2,4,6,8,10,12,14,16,18,20,-1,22,24,26,28,30,32,34,-1,-1,-1,36,-1,-1,-1,38,40,-1,42,-1,-1,44,46,48,50,52,-1,-1,-1,-1,-1,-1,-1,54,-1,-1,-1,-1,-1,56,-1,-1,-1,-1,-1,-1,-1],"split_conditions":[5.4249203E-1,6.4458275E-1,-4.347186E-1,-4.033284E-1,1.6269244E0,-3.716879E-1,1.3764303E0,-7.3118496E-1,8.133101E-1,-6.5760547E-1,-4.823582E-3,-7.9448575E-1,-1.258829E-1,1.16316E0,1.8460605E0,-1.1210693E0,-7.513933E-1,-1.5681387E-1,-3.1375404E-2,-1.1355943E-2,-4.876714E-2,-8.4537774E-1,4.131416E-2,-4.6524066E-3,-3.7566792E-2,9.670511E-1,-4.269109E-1,-3.64603E-2,1.7832375E0,-3.214152E-2,3.4442306E-2,-8.890274E-1,6.606538E-1,-6.3872993E-1,2.2948146E-1,-9.5804113E-1,-3.455435E-2,-1.7150855E-2,3.4343015E-2,-4.201513E-3,8.883004E-2,4.533133E-2,-6.7400374E-3,-2.733179E-1,3.7898734E-2,-4.4948E-2,-9.36558E-3,4.483703E-2,-3.98505E-2,3.998151E-2,1.2845454E-2,-1.3729802E-2,3.8611896E-2,-4.4022575E-2,-1.0519779E-2,8.087592E-2,3.2881263E-3],"split_indices":[0,3,3,7,9,7,9,0,9,9,0,3,10,4,10,10,9,9,0,0,0,9,0,0,0,0,6,0,9,0,0,9,6,9,7,9,0,0,0,0,0,0,0,10,0,0,0,0,0,10,0,0,0,0,0,0,0],"split_type":[0,0,0,0,0,0,0,0,0,0,0,0,0,0,0,0,0,0,0,0,0,0,0,0,0,0,0,0,0,0,0,0,0,0,0,0,0,0,0,0,0,0,0,0,0,0,0,0,0,0,0,0,0,0,0,0,0],"sum_hessian":[5.5207596E1,3.3911663E1,2.129593E1,2.4655136E1,9.256529E0,7.997899E0,1.3298031E1,1.443092E1,1.0224216E1,8.203449E0,1.053079E0,5.185109E0,2.8127902E0,9.8193655E0,3.478665E0,3.008812E0,1.1422108E1,9.136001E0,1.0882157E0,1.3671337E0,6.8363156E0,4.1340823E0,1.0510267E0,1.0230162E0,1.789774E0,3.0289392E0,6.7904263E0,1.4107499E0,2.0679152E0,1.2586746E0,1.7501373E0,6.399319E0,5.0227885E0,3.8205576E0,5.3154435E0,2.5514638E0,1.5826186E0,1.4375273E0,1.591412E0,1.709843E0,5.0805836E0,1.0011297E0,1.0667856E0,4.734375E0,1.6649442E0,3.7929716E0,1.2298169E0,1.4934673E0,2.3270903E0,3.451435E0,1.8640084E0,1.4544026E0,1.0970614E0,3.421793E0,1.312582E0,1.8642441E0,1.5871909E0],"tree_param":{"num_deleted":"0","num_feature":"16","num_nodes":"57","size_leaf_vector":"1"}},{"base_weights":[2.1972274E-2,-2.9094172E-1,2.9120097E-1,-5.147844E-1,3.356287E-1,6.4563423E-1,-5.3018607E-2,2.3521693E-2,-6.231403E-1,7.3227E-1,-4.3893558E-1,-3.62654E-2,8.8170063E-1,6.520894E-1,-2.9277584E-1,-4.049088E-1,-4.2614873E-2,-2.9694026E-2,1.2010721E0,-2.9508833E-2,-2.8982894E-3,-2.2685552E-2,1.1514399E0,-1.8834438E-2,7.333563E-2,-7.12211E-1,-1.23996455E-2,-6.613497E-1,4.0882304E-1,2.0444876E-2,7.689907E-2,1.5318284E-3,1.3219525E0,-7.916517E-3,-4.1880798E-2,3.239636E-1,-5.6804883E-1,-4.4894397E-2,-2.8695288E-1,-8.650948E-3,4.100315E-2,-1.595667E-2,1.6211216E0,-1.9272579E-2,5.852024E-1,-4.238294E-3,-3.6199905E-2,1.0606752E-2,-3.632355E-2,8.916321E-2,2.106441E-2,3.333954E-2,-3.3561062E-2,4.9670648E-2,-7.32081E-3],"categories":[],"categories_nodes":[],"categories_segments":[],"categories_sizes":[],"default_left":[0,0,0,0,0,0,0,0,0,0,0,0,0,0,0,0,0,0,0,0,0,0,0,0,0,0,0,0,0,0,0,0,0,0,0,0,0,0,0,0,0,0,0,0,0,0,0,0,0,0,0,0,0,0,0],"id":13,"left_children":[1,3,5,7,9,11,13,-1,15,17,19,-1,21,23,25,27,-1,-1,29,-1,-1,-1,31,-1,-1,33,35,37,39,-1,-1,-1,41,-1,-1,43,45,-1,47,-1,-1,-1,49,51,53,-1,-1,-1,-1,-1,-1,-1,-1,-1,-1],"loss_changes":[4.7138524E0,3.807098E0,3.6986551E0,2.373426E0,2.6028507E0,5.453267E0,2.9230845E0,0E0,5.543642E-1,3.999514E0,1.4671737E-1,0E0,5.2557955E0,4.249026E0,1.4906417E0,2.590344E0,0E0,0E0,5.017166E-1,0E0,0E0,0E0,2.1027985E0,0E0,0E0,2.2098184E-1,1.802559E0,5.248213E-1,9.2720705E-1,0E0,0E0,0E0,5.2847595E0,0E0,0E0,5.5207556E-1,2.1211493E-1,0E0,1.2269055E0,0E0,0E0,0E0,8.7853813E-1,2.0464263E0,1.177766E0,0E0,0E0,0E0,0E0,0E0,0E0,0E0,0E0,0E0,0E0],"parents":[2147483647,0,0,1,1,2,2,3,3,4,4,5,5,6,6,8,8,9,9,10,10,12,12,13,13,14,14,15,15,18,18,22,22,25,25,26,26,27,27,28,28,32,32,35,35,36,36,38,38,42,42,43,43,44,44],"right_children":[2,4,6,8,10,12,14,-1,16,18,20,-1,22,24,26,28,-1,-1,30,-1,-1,-1,32,-1,-1,34,36,38,40,-1,-1,-1,42,-1,-1,44,46,-1,48,-1,-1,-1,50,52,54,-1,-1,-1,-1,-1,-1,-1,-1,-1,-1],"split_conditions":[1.1793306E-1,1.174216E0,-7.551211E-1,-1.5286952E0,6.4458275E-1,-2.8206092E-1,-7.63977E-1,2.3521693E-2,9.616662E-2,-1.1210693E0,4.638572E-1,-3.62654E-2,-1.1409886E0,-9.141948E-1,9.348361E-2,6.7558527E-1,-4.2614873E-2,-2.9694026E-2,-3.0662593E-1,-2.9508833E-2,-2.8982894E-3,-2.2685552E-2,-2.733179E-1,-1.8834438E-2,7.333563E-2,5.4249203E-1,1.7667061E0,-3.0662593E-1,-3.8631395E-1,2.0444876E-2,7.689907E-2,1.5318284E-3,-4.7434708E-1,-7.916517E-3,-4.1880798E-2,7.818509E-1,-1.0493133E0,-4.4894397E-2,-7.513933E-1,-8.650948E-3,4.100315E-2,-1.595667E-2,1.3451676E0,2.0867631E-1,1.7832375E0,-4.238294E-3,-3.6199905E-2,1.0606752E-2,-3.632355E-2,8.916321E-2,2.106441E-2,3.333954E-2,-3.3561062E-2,4.9670648E-2,-7.32081E-3],"split_indices":[0,1,1,5,3,9,9,0,11,10,10,0,1,9,9,2,0,0,0,0,0,0,10,0,0,0,8,0,5,0,0,0,2,0,0,9,2,0,9,0,0,0,9,5,9,0,0,0,0,0,0,0,0,0,0],"split_type":[0,0,0,0,0,0,0,0,0,0,0,0,0,0,0,0,0,0,0,0,0,0,0,0,0,0,0,0,0,0,0,0,0,0,0,0,0,0,0,0,0,0,0,0,0,0,0,0,0,0,0,0,0,0,0],"sum_hessian":[5.3948143E1,2.4912577E1,2.9035564E1,1.8486628E1,6.425949E0,1.3874123E1,1.5161442E1,1.5006366E0,1.698599E1,4.2858443E0,2.1401048E0,1.7336389E0,1.2140484E1,3.410786E0,1.1750656E1,1.0117663E1,6.868328E0,1.0496848E0,3.2361596E0,1.1388502E0,1.0012546E0,1.9255474E0,1.0214936E1,1.7448395E0,1.6659464E0,4.0907726E0,7.659883E0,7.8356013E0,2.2820618E0,1.6261843E0,1.6099753E0,1.5046076E0,8.710329E0,1.1729064E0,2.9178665E0,5.0312004E0,2.6286829E0,3.9449904E0,3.8906107E0,1.184893E0,1.0971688E0,1.3327618E0,7.3775673E0,2.5746489E0,2.4565516E0,1.0178716E0,1.6108112E0,2.0641003E0,1.8265104E0,6.070901E0,1.3066664E0,1.2434093E0,1.3312396E0,1.3471006E0,1.1094508E0],"tree_param":{"num_deleted":"0","num_feature":"16","num_nodes":"55","size_leaf_vector":"1"}},{"base_weights":[1.6616995E-2,-3.786664E-1,3.2906246E-1,2.4994095E-1,-4.8770824E-1,5.745054E-1,-6.515888E-1,-1.896682E-2,4.2499695E-2,-2.686133E-1,-6.713465E-1,7.4301696E-1,-4.2200065E-1,-7.416151E-1,-3.8074765E-3,-5.348272E-1,3.7570387E-1,-7.961191E-1,3.2374922E-3,2.5374636E-1,1.1665565E0,1.3974254E-2,-3.8948014E-2,-3.8390115E-3,-4.34361E-2,6.0862782E-3,-6.9161236E-1,5.175327E-2,-3.1797156E-2,-8.7362665E-1,-6.417874E-3,1.1874049E0,-1.201743E-1,-1.5176064E-2,1.3815185E0,-4.408332E-2,-2.6049206E-1,-5.6211217E-3,-4.85009E-2,1.5452859E-2,7.438171E-2,-4.1724834E-1,4.7393063E-1,5.637134E-1,8.424344E-2,1.5459287E-2,-3.306141E-2,5.543892E-3,-4.3523412E-2,4.4089496E-2,-9.268541E-3,4.7935117E-2,-1.4675322E-2],"categories":[],"categories_nodes":[],"categories_segments":[],"categories_sizes":[],"default_left":[0,0,0,0,0,0,0,0,0,0,0,0,0,0,0,0,0,0,0,0,0,0,0,0,0,0,0,0,0,0,0,0,0,0,0,0,0,0,0,0,0,0,0,0,0,0,0,0,0,0,0,0,0],"id":14,"left_children":[1,3,5,7,9,11,13,-1,-1,15,17,19,21,23,-1,25,27,29,-1,31,33,-1,-1,-1,-1,-1,35,-1,-1,37,-1,39,41,-1,43,-1,45,-1,-1,-1,-1,47,49,51,-1,-1,-1,-1,-1,-1,-1,-1,-1],"loss_changes":[6.8613086E0,1.8043783E0,7.83595E0,1.9421899E0,6.7489386E-1,4.5663805E0,2.8928685E-1,0E0,0E0,2.1493666E0,1.0523643E0,4.2681475E0,1.2946904E0,4.113407E-1,0E0,9.540961E-1,3.265402E0,3.7399578E-1,0E0,4.156641E0,4.062154E0,0E0,0E0,0E0,0E0,0E0,3.4154654E-1,0E0,0E0,4.958105E-1,0E0,4.3150377E-1,1.806964E0,0E0,1.5898552E0,0E0,1.0154063E0,0E0,0E0,0E0,0E0,1.6787015E0,1.1066567E0,1.7280701E0,0E0,0E0,0E0,0E0,0E0,0E0,0E0,0E0,0E0],"parents":[2147483647,0,0,1,1,2,2,3,3,4,4,5,5,6,6,9,9,10,10,11,11,12,12,13,13,15,15,16,16,17,17,19,19,20,20,26,26,29,29,31,31,32,32,34,34,36,36,41,41,42,42,43,43],"right_children":[2,4,6,8,10,12,14,-1,-1,16,18,20,22,24,-1,26,28,30,-1,32,34,-1,-1,-1,-1,-1,36,-1,-1,38,-1,40,42,-1,44,-1,46,-1,-1,-1,-1,48,50,52,-1,-1,-1,-1,-1,-1,-1,-1,-1],"split_conditions":[-9.428866E-2,-1.3382984E0,1.2505515E0,1.16316E0,-5.313292E-1,1.8032502E0,1.3986568E0,-1.896682E-2,4.2499695E-2,1.1793306E-1,-2.1468155E-1,1.16316E0,-4.7434708E-1,2.3111774E-1,-3.8074765E-3,-9.454574E-1,1.16316E0,4.638572E-1,3.2374922E-3,9.616662E-2,-4.7434708E-1,1.3974254E-2,-3.8948014E-2,-3.8390115E-3,-4.34361E-2,6.0862782E-3,6.606538E-1,5.175327E-2,-3.1797156E-2,-1.5211613E0,-6.417874E-3,1.3516033E-1,9.2459166E-1,-1.5176064E-2,6.992485E-1,-4.408332E-2,-1.0394888E-1,-5.6211217E-3,-4.85009E-2,1.5452859E-2,7.438171E-2,2.0867631E-1,8.9886504E-1,2.3247592E-1,8.424344E-2,1.5459287E-2,-3.306141E-2,5.543892E-3,-4.3523412E-2,4.4089496E-2,-9.268541E-3,4.7935117E-2,-1.4675322E-2],"split_indices":[9,5,2,4,10,5,5,0,0,0,13,4,2,9,0,9,4,10,0,11,2,0,0,0,0,0,6,0,0,9,0,12,10,0,13,0,11,0,0,0,0,5,5,5,0,0,0,0,0,0,0,0,0],"split_type":[0,0,0,0,0,0,0,0,0,0,0,0,0,0,0,0,0,0,0,0,0,0,0,0,0,0,0,0,0,0,0,0,0,0,0,0,0,0,0,0,0,0,0,0,0,0,0,0,0,0,0,0,0],"sum_hessian":[5.3546215E1,2.3545813E1,3.0000402E1,3.2896128E0,2.02562E1,2.4326092E1,5.674312E0,1.7852471E0,1.5043656E0,1.0359376E1,9.896825E0,2.1025078E1,3.3010128E0,4.6569595E0,1.0173526E0,7.4508324E0,2.9085438E0,8.392674E0,1.5041499E0,1.0497515E1,1.0527563E1,1.1864599E0,2.1145527E0,1.0048956E0,3.652064E0,1.4793847E0,5.971448E0,1.74685E0,1.1616938E0,7.2436123E0,1.1490622E0,2.3797822E0,8.117732E0,1.2904546E0,9.237109E0,3.4191146E0,2.552333E0,1.0576487E0,6.1859636E0,1.1231909E0,1.2565913E0,5.610143E0,2.5075893E0,3.2726443E0,5.9644647E0,1.1483372E0,1.4039958E0,2.9398098E0,2.6703334E0,1.3407247E0,1.1668646E0,2.159299E0,1.1133454E0],"tree_param":{"num_deleted":"0","num_feature":"16","num_nodes":"53","size_leaf_vector":"1"}},{"base_weights":[-7.810243E-2,-3.939458E-1,2.83283E-1,-4.6070072E-1,2.8560732E-2,6.407391E-1,-3.5557926E-1,3.7327632E-2,-5.865742E-1,8.182847E-1,-3.4116887E-2,3.1861033E-2,-5.6960803E-1,-1.982506E-1,2.7902847E-2,-7.721901E-1,-1.4082758E-1,-3.1082904E-1,1.0843698E0,-2.5468412E-1,-4.2979445E-2,-5.2587163E-1,1.2774429E-2,-4.0799803E-1,-5.009083E-2,-6.7660964E-1,4.288064E-1,-3.1070491E-2,4.1363062E-3,-1.5195615E-2,1.2807733E0,-3.9476197E-2,3.1867814E-1,-4.2718793E-3,-3.380723E-2,2.2867601E-2,-7.9078674E-1,-4.058025E-2,-6.904505E-3,4.87726E-2,-1.5624518E-2,1.4070827E0,5.1060355E-1,2.6928304E-2,-4.940795E-3,-4.046023E-3,-4.642087E-2,2.5380282E-2,7.546485E-2,6.6348906E-3,3.155185E-2],"categories":[],"categories_nodes":[],"categories_segments":[],"categories_sizes":[],"default_left":[0,0,0,0,0,0,0,0,0,0,0,0,0,0,0,0,0,0,0,0,0,0,0,0,0,0,0,0,0,0,0,0,0,0,0,0,0,0,0,0,0,0,0,0,0,0,0,0,0,0,0],"id":15,"left_children":[1,3,5,7,-1,9,11,13,15,17,-1,-1,19,21,-1,23,25,27,29,31,-1,33,-1,35,-1,37,39,-1,-1,-1,41,-1,43,-1,-1,-1,45,-1,-1,-1,-1,47,49,-1,-1,-1,-1,-1,-1,-1,-1],"loss_changes":[6.4054217E0,2.1858983E0,6.233382E0,1.8063688E0,0E0,4.603382E0,2.5044658E0,9.3047786E-1,1.7762251E0,5.035078E0,0E0,0E0,5.864334E-1,9.280716E-1,0E0,9.177351E-1,2.7076032E0,5.109266E-1,3.9005156E0,1.9838022E0,0E0,1.6908604E-1,0E0,2.9522324E0,0E0,2.1285987E-1,2.1085935E0,0E0,0E0,0E0,3.9766693E-1,0E0,3.688875E-1,0E0,0E0,0E0,4.9041343E-1,0E0,0E0,0E0,0E0,8.774376E-2,6.1270654E-2,0E0,0E0,0E0,0E0,0E0,0E0,0E0,0E0],"parents":[2147483647,0,0,1,1,2,2,3,3,5,5,6,6,7,7,8,8,9,9,12,12,13,13,15,15,16,16,17,17,18,18,19,19,21,21,23,23,25,25,26,26,30,30,32,32,36,36,41,41,42,42],"right_children":[2,4,6,8,-1,10,12,14,16,18,-1,-1,20,22,-1,24,26,28,30,32,-1,34,-1,36,-1,38,40,-1,-1,-1,42,-1,44,-1,-1,-1,46,-1,-1,-1,-1,48,50,-1,-1,-1,-1,-1,-1,-1,-1],"split_conditions":[1.16316E0,1.5600835E0,1.6613737E-2,-9.9369556E-1,2.8560732E-2,1.2505515E0,-1.1943407E0,-8.6923465E-2,1.174216E0,-4.033284E-1,-3.4116887E-2,3.1861033E-2,6.4458275E-1,1.6613737E-2,2.7902847E-2,-7.551211E-1,-8.6923465E-2,-8.51473E-1,-4.347186E-1,-4.5724952E-1,-4.2979445E-2,-1.3084183E0,1.2774429E-2,1.0061908E-1,-5.009083E-2,9.409584E-2,3.876839E-1,-3.1070491E-2,4.1363062E-3,-1.5195615E-2,1.7667061E0,-3.9476197E-2,1.097687E0,-4.2718793E-3,-3.380723E-2,2.2867601E-2,-2.0400664E-1,-4.058025E-2,-6.904505E-3,4.87726E-2,-1.5624518E-2,-3.8911346E-3,1.3368987E0,2.6928304E-2,-4.940795E-3,-4.046023E-3,-4.642087E-2,2.5380282E-2,7.546485E-2,6.6348906E-3,3.155185E-2],"split_indices":[4,1,1,6,0,2,7,7,1,7,0,0,3,1,0,1,7,9,3,9,0,9,0,2,0,6,7,0,0,0,8,0,8,0,0,0,11,0,0,0,0,11,7,0,0,0,0,0,0,0,0],"split_type":[0,0,0,0,0,0,0,0,0,0,0,0,0,0,0,0,0,0,0,0,0,0,0,0,0,0,0,0,0,0,0,0,0,0,0,0,0,0,0,0,0,0,0,0,0,0,0,0,0,0,0],"sum_hessian":[5.414068E1,2.8842676E1,2.5298002E1,2.7465693E1,1.3769836E0,1.6219778E1,9.078225E0,5.683183E0,2.178251E1,1.4637129E1,1.5826483E0,1.2593415E0,7.8188834E0,4.339344E0,1.3438389E0,1.4861568E1,6.920942E0,2.7594476E0,1.1877682E1,4.6486516E0,3.1702318E0,2.4275591E0,1.9117851E0,6.8206606E0,8.040908E0,3.469669E0,3.4512725E0,1.2187139E0,1.5407338E0,1.4042591E0,1.0473422E1,2.210066E0,2.4385853E0,1.0165904E0,1.4109687E0,2.0320728E0,4.788588E0,2.3687663E0,1.100903E0,1.8046318E0,1.6466407E0,8.28731E0,2.1861126E0,1.4073552E0,1.0312301E0,1.0355287E0,3.7530594E0,1.4544423E0,6.832867E0,1.0362666E0,1.1498461E0],"tree_param":{"num_deleted":"0","num_feature":"16","num_nodes":"51","size_leaf_vector":"1"}},{"base_weights":[7.6188054E-4,-2.8020802E-1,3.8967E-1,-4.8752397E-1,-6.426706E-2,5.581687E-1,-2.598778E-1,3.331438E-2,-6.32588E-1,-6.4656335E-1,1.368374E-1,1.0431417E-1,1.4862792E0,1.5666258E-2,-3.200909E-2,-3.5293084E-2,3.706348E-2,-2.1737385E-1,-4.742863E-2,-3.7981465E-2,-1.0784187E-2,4.1024494E-1,-4.8003364E-1,2.532192E-1,-2.6248757E-2,1.548473E-2,8.3668366E-2,-2.1763066E-2,2.4096182E-2,-6.089525E-1,2.976172E-1,-1.6895218E-1,7.375507E-1,-4.096883E-2,1.373778E-2,-1.1180115E-3,7.6890546E-1,-5.3768796E-3,-3.697457E-2,-1.04760025E-2,3.3075597E-2,1.8563945E-2,-3.409955E-2,2.7611584E-3,9.6590936E-1,2.0525606E-1,-3.299433E-2,6.41845E-2,-2.511524E-4,6.000484E-2,1.73468E-2,-4.904873E-3,4.0210467E-2],"categories":[],"categories_nodes":[],"categories_segments":[],"categories_sizes":[],"default_left":[0,0,0,0,0,0,0,0,0,0,0,0,0,0,0,0,0,0,0,0,0,0,0,0,0,0,0,0,0,0,0,0,0,0,0,0,0,0,0,0,0,0,0,0,0,0,0,0,0,0,0,0,0],"id":16,"left_children":[1,3,5,7,9,11,13,15,17,19,21,23,25,27,-1,-1,-1,29,-1,-1,-1,31,33,35,-1,-1,-1,-1,-1,37,39,41,43,-1,-1,45,47,-1,-1,-1,-1,-1,-1,-1,49,51,-1,-1,-1,-1,-1,-1,-1],"loss_changes":[5.82199E0,1.3535278E0,2.5908525E0,1.202029E0,1.9976789E0,7.452933E0,5.638696E-1,2.8022163E0,1.404356E0,4.8567414E-2,2.379992E0,1.3703302E0,7.7084637E-1,1.0593404E0,0E0,0E0,0E0,1.5126028E0,0E0,0E0,0E0,1.927065E0,1.3613011E0,1.4899163E0,0E0,0E0,0E0,0E0,0E0,1.8744409E-1,7.8881836E-1,1.4301891E0,9.222679E-1,0E0,0E0,1.3048795E0,1.5010183E0,0E0,0E0,0E0,0E0,0E0,0E0,0E0,2.54879E-1,1.4075545E0,0E0,0E0,0E0,0E0,0E0,0E0,0E0],"parents":[2147483647,0,0,1,1,2,2,3,3,4,4,5,5,6,6,7,7,8,8,9,9,10,10,11,11,12,12,13,13,17,17,21,21,22,22,23,23,29,29,30,30,31,31,32,32,35,35,36,36,44,44,45,45],"right_children":[2,4,6,8,10,12,14,16,18,20,22,24,26,28,-1,-1,-1,30,-1,-1,-1,32,34,36,-1,-1,-1,-1,-1,38,40,42,44,-1,-1,46,48,-1,-1,-1,-1,-1,-1,-1,50,52,-1,-1,-1,-1,-1,-1,-1],"split_conditions":[5.4249203E-1,-3.0662593E-1,1.3800957E0,-1.010493E0,-8.4462863E-1,6.992485E-1,2.0412464E0,-8.623062E-1,-7.3118496E-1,-1.1026399E0,7.421848E-1,8.324448E-1,-4.7434708E-1,1.6929173E0,-3.200909E-2,-3.5293084E-2,3.706348E-2,1.3516033E-1,-4.742863E-2,-3.7981465E-2,-1.0784187E-2,-4.033284E-1,1.5583822E0,-4.347186E-1,-2.6248757E-2,1.548473E-2,8.3668366E-2,-2.1763066E-2,2.4096182E-2,1.00435E0,-8.51473E-1,-7.513933E-1,-1.16541415E-1,-4.096883E-2,1.373778E-2,-2.9319799E-2,9.616662E-2,-5.3768796E-3,-3.697457E-2,-1.04760025E-2,3.3075597E-2,1.8563945E-2,-3.409955E-2,2.7611584E-3,2.0867631E-1,-2.0400664E-1,-3.299433E-2,6.41845E-2,-2.511524E-4,6.000484E-2,1.73468E-2,-4.904873E-3,4.0210467E-2],"split_indices":[0,0,13,10,10,13,5,5,0,10,13,10,2,13,0,0,0,12,0,0,0,7,7,3,0,0,0,0,0,3,9,9,13,0,0,5,11,0,0,0,0,0,0,0,5,11,0,0,0,0,0,0,0],"split_type":[0,0,0,0,0,0,0,0,0,0,0,0,0,0,0,0,0,0,0,0,0,0,0,0,0,0,0,0,0,0,0,0,0,0,0,0,0,0,0,0,0,0,0,0,0,0,0,0,0,0,0,0,0],"sum_hessian":[5.1280807E1,2.993414E1,2.1346666E1,1.4630415E1,1.5303724E1,1.7061451E1,4.2852154E0,3.3549914E0,1.1275424E1,3.3599513E0,1.1943773E1,1.2205328E1,4.856123E0,3.0408297E0,1.2443858E0,1.6427516E0,1.7122399E0,5.6020584E0,5.673365E0,2.057163E0,1.3027883E0,8.507892E0,3.4358816E0,1.0353137E1,1.852191E0,1.0305297E0,3.825593E0,1.5796218E0,1.4612079E0,3.0786915E0,2.5233672E0,3.2465816E0,5.26131E0,2.311219E0,1.1246626E0,7.601767E0,2.7513702E0,1.0126776E0,2.066014E0,1.2314298E0,1.2919372E0,1.7159725E0,1.5306089E0,1.6306909E0,3.6306193E0,6.312621E0,1.2891458E0,1.2567594E0,1.4946108E0,1.9528947E0,1.6777246E0,4.7454157E0,1.5672054E0],"tree_param":{"num_deleted":"0","num_feature":"16","num_nodes":"53","size_leaf_vector":"1"}},{"base_weights":[8.988826E-2,2.1676983E-1,-8.0406517E-1,-1.6410623E-1,5.668288E-1,-8.5060885E-3,-4.5271996E-2,-3.2744086E-1,5.652147E-1,7.425524E-1,-4.0031742E-2,3.95505E-1,-4.4259852E-1,5.2297056E-2,-3.8517788E-3,1.0653387E0,1.4589128E-1,-1.0160847E-2,4.328909E-2,-7.7736944E-1,-2.4125871E-1,-1.5561369E-2,1.243424E0,-3.2538423E-1,8.216631E-1,-9.012911E-3,-4.444763E-2,6.197424E-1,-5.8125234E-1,8.2428265E-1,1.6055562E0,1.8791616E-2,-5.480062E-1,-2.976285E-2,7.745584E-2,4.946131E-2,-7.6099723E-3,-4.1328818E-2,9.4986735E-3,7.873645E-2,1.2378374E-2,1.451799E-2,9.226147E-2,-4.1308913E-2,2.8508042E-3],"categories":[],"categories_nodes":[],"categories_segments":[],"categories_sizes":[],"default_left":[0,0,0,0,0,0,0,0,0,0,0,0,0,0,0,0,0,0,0,0,0,0,0,0,0,0,0,0,0,0,0,0,0,0,0,0,0,0,0,0,0,0,0,0,0],"id":17,"left_children":[1,3,5,7,9,-1,-1,11,13,15,-1,17,19,-1,-1,21,23,-1,-1,25,27,-1,29,31,33,-1,-1,35,37,39,41,-1,43,-1,-1,-1,-1,-1,-1,-1,-1,-1,-1,-1,-1],"loss_changes":[6.196239E0,6.396832E0,2.8368998E-1,2.9748054E0,6.568567E0,0E0,0E0,1.8207021E0,1.5168346E0,4.1874E0,0E0,1.0893738E0,9.9353814E-1,0E0,0E0,3.9352894E0,3.1574788E0,0E0,0E0,2.4823856E-1,3.987805E0,0E0,6.52256E-1,1.1523854E0,5.057649E0,0E0,0E0,1.2891796E0,1.9355004E0,3.1107335E0,1.3328419E0,0E0,8.900485E-1,0E0,0E0,0E0,0E0,0E0,0E0,0E0,0E0,0E0,0E0,0E0,0E0],"parents":[2147483647,0,0,1,1,2,2,3,3,4,4,7,7,8,8,9,9,11,11,12,12,15,15,16,16,19,19,20,20,22,22,23,23,24,24,27,27,28,28,29,29,30,30,32,32],"right_children":[2,4,6,8,10,-1,-1,12,14,16,-1,18,20,-1,-1,22,24,-1,-1,26,28,-1,30,32,34,-1,-1,36,38,40,42,-1,44,-1,-1,-1,-1,-1,-1,-1,-1,-1,-1,-1,-1],"split_conditions":[1.2505515E0,-1.5681387E-1,1.8374702E-2,1.174216E0,1.8032502E0,-8.5060885E-3,-4.5271996E-2,-1.5286952E0,1.0061908E-1,1.6613737E-2,-4.0031742E-2,-7.9448575E-1,-1.0079826E0,5.2297056E-2,-3.8517788E-3,-6.050467E-1,1.174216E0,-1.0160847E-2,4.328909E-2,-1.5274532E0,-8.327941E-1,-1.5561369E-2,2.8481564E-1,-5.528297E-2,-8.6923465E-2,-9.012911E-3,-4.444763E-2,-5.313292E-1,2.7956343E-1,1.2474622E-1,1.16316E0,1.8791616E-2,1.39161E0,-2.976285E-2,7.745584E-2,4.946131E-2,-7.6099723E-3,-4.1328818E-2,9.4986735E-3,7.873645E-2,1.2378374E-2,1.451799E-2,9.226147E-2,-4.1308913E-2,2.8508042E-3],"split_indices":[2,9,9,1,5,0,0,5,2,1,0,3,9,0,0,10,1,0,0,9,9,0,3,7,7,0,0,10,10,9,4,0,0,0,0,0,0,0,0,0,0,0,0,0,0],"split_type":[0,0,0,0,0,0,0,0,0,0,0,0,0,0,0,0,0,0,0,0,0,0,0,0,0,0,0,0,0,0,0,0,0,0,0,0,0,0,0,0,0,0,0,0,0],"sum_hessian":[5.2091267E1,4.62801E1,5.8111625E0,2.2418842E1,2.3861261E1,1.1703799E0,4.640783E0,1.8766937E1,3.6519046E0,2.1549114E1,2.3121474E0,2.2441254E0,1.6522812E1,1.729106E0,1.9227986E0,1.3474225E1,8.074889E0,1.2370641E0,1.0070614E0,5.130788E0,1.1392024E1,1.4578315E0,1.2016394E1,5.0627117E0,3.0121772E0,1.2196383E0,3.9111493E0,2.9920754E0,8.399949E0,7.0883465E0,4.928047E0,1.0541457E0,4.008566E0,1.083494E0,1.9286833E0,1.8331671E0,1.1589084E0,6.3183393E0,2.0816097E0,2.3282347E0,4.760112E0,1.1005127E0,3.8275342E0,2.495618E0,1.5129478E0],"tree_param":{"num_deleted":"0","num_feature":"16","num_nodes":"45","size_leaf_vector":"1"}},{"base_weights":[2.8936211E-2,-3.0260354E-1,3.7979668E-1,-5.5116224E-1,2.1365744E-1,7.234681E-1,-2.1483094E-1,-1.0150572E-1,-8.0060625E-1,7.2512376E-1,-1.3521966E-1,9.026445E-1,-3.3601385E-2,4.763689E-2,-4.8961842E-1,4.07191E-1,-4.097759E-2,-4.903945E-1,-4.837771E-2,4.959307E-2,6.393134E-3,-4.724005E-1,4.546805E-2,9.802036E-4,1.0801686E0,-4.196391E-2,-1.970039E-1,-4.2645094E-1,1.0354956E0,-4.3218073E-2,1.5042914E-1,-3.7559252E-2,-1.6517465E-1,3.1256013E-2,-3.1749487E-2,1.306203E0,4.7505414E-1,2.457903E-2,-6.4101547E-1,-2.8930975E-2,-3.052688E-3,6.6003576E-2,9.683239E-3,-8.023119E-3,2.0560985E-2,1.9402867E-2,-3.4806248E-2,2.3952091E-2,7.214229E-2,-2.7790517E-2,5.911673E-2,-3.9620172E-2,-3.8470686E-3],"categories":[],"categories_nodes":[],"categories_segments":[],"categories_sizes":[],"default_left":[0,0,0,0,0,0,0,0,0,0,0,0,0,0,0,0,0,0,0,0,0,0,0,0,0,0,0,0,0,0,0,0,0,0,0,0,0,0,0,0,0,0,0,0,0,0,0,0,0,0,0,0,0],"id":18,"left_children":[1,3,5,7,9,11,13,15,17,19,21,23,-1,-1,25,27,-1,29,-1,-1,-1,31,-1,33,35,-1,37,39,41,-1,43,-1,45,-1,-1,47,49,-1,51,-1,-1,-1,-1,-1,-1,-1,-1,-1,-1,-1,-1,-1,-1],"loss_changes":[6.5020475E0,3.811848E0,5.6975927E0,2.1296487E0,1.8960723E0,4.961238E0,3.9007862E0,3.3210084E0,1.7459393E-1,5.4917693E-1,2.8363063E0,2.5377445E0,0E0,0E0,7.888093E-1,3.2988634E0,0E0,1.6668284E0,0E0,0E0,0E0,3.7473333E-1,0E0,1.8298712E0,1.1918936E0,0E0,2.2668445E0,1.3441199E-1,5.594311E-1,0E0,3.26648E-1,0E0,1.4604983E0,0E0,0E0,3.345995E-1,4.43044E0,0E0,3.0751514E-1,0E0,0E0,0E0,0E0,0E0,0E0,0E0,0E0,0E0,0E0,0E0,0E0,0E0,0E0],"parents":[2147483647,0,0,1,1,2,2,3,3,4,4,5,5,6,6,7,7,8,8,9,9,10,10,11,11,14,14,15,15,17,17,21,21,23,23,24,24,26,26,27,27,28,28,30,30,32,32,35,35,36,36,38,38],"right_children":[2,4,6,8,10,12,14,16,18,20,22,24,-1,-1,26,28,-1,30,-1,-1,-1,32,-1,34,36,-1,38,40,42,-1,44,-1,46,-1,-1,48,50,-1,52,-1,-1,-1,-1,-1,-1,-1,-1,-1,-1,-1,-1,-1,-1],"split_conditions":[1.16316E0,1.174216E0,1.6613737E-2,-7.551211E-1,-5.260666E-1,1.2505515E0,-1.3382984E0,6.7558527E-1,-3.8631395E-1,1.0061908E-1,1.2328855E0,-3.8631395E-1,-3.3601385E-2,4.763689E-2,-4.5095766E-1,-2.8206092E-1,-4.097759E-2,-8.953193E-1,-4.837771E-2,4.959307E-2,6.393134E-3,-5.313292E-1,4.546805E-2,-8.7712747E-1,1.097687E0,-4.196391E-2,4.466724E-1,-8.953193E-1,3.876274E-1,-4.3218073E-2,-2.3645917E-1,-3.7559252E-2,3.998151E-2,3.1256013E-2,-3.1749487E-2,-2.733179E-1,9.9406344E-1,2.457903E-2,2.0412464E0,-2.8930975E-2,-3.052688E-3,6.6003576E-2,9.683239E-3,-8.023119E-3,2.0560985E-2,1.9402867E-2,-3.4806248E-2,2.3952091E-2,7.214229E-2,-2.7790517E-2,5.911673E-2,-3.9620172E-2,-3.8470686E-3],"split_indices":[4,1,1,1,9,2,5,2,5,2,13,5,0,0,9,9,0,9,0,0,0,10,0,13,8,0,5,9,9,0,10,0,10,0,0,10,5,0,5,0,0,0,0,0,0,0,0,0,0,0,0,0,0],"split_type":[0,0,0,0,0,0,0,0,0,0,0,0,0,0,0,0,0,0,0,0,0,0,0,0,0,0,0,0,0,0,0,0,0,0,0,0,0,0,0,0,0,0,0,0,0,0,0,0,0,0,0,0,0],"sum_hessian":[5.3907925E1,2.7787825E1,2.6120102E1,1.8711426E1,9.076398E0,1.6415762E1,9.70434E0,7.1783705E0,1.1533055E1,3.2432406E0,5.833157E0,1.4860856E1,1.5549052E0,1.3787725E0,8.325568E0,4.455095E0,2.7232754E0,5.4127836E0,6.1202717E0,1.7852585E0,1.457982E0,4.8238306E0,1.0093265E0,2.609984E0,1.2250872E1,2.9419181E0,5.38365E0,2.0527496E0,2.4023454E0,3.197805E0,2.214979E0,1.7713784E0,3.0524523E0,1.3258532E0,1.2841306E0,8.075679E0,4.175193E0,2.068552E0,3.3150978E0,1.037253E0,1.0154967E0,1.3708438E0,1.0315015E0,1.1859281E0,1.0290508E0,1.6266575E0,1.4257947E0,1.7837316E0,6.291948E0,1.7861009E0,2.389092E0,2.2945054E0,1.0205925E0],"tree_param":{"num_deleted":"0","num_feature":"16","num_nodes":"53","size_leaf_vector":"1"}},{"base_weights":[3.330848E-2,-2.7729854E-1,5.307503E-1,-1.1786856E-1,-4.6365637E-2,9.9424845E-1,1.3826486E-1,-3.2814738E-1,5.7491857E-1,1.5607491E-1,6.2465735E-2,4.191914E-2,-8.2401566E-2,-6.405481E-1,-2.332384E-2,-6.2134787E-3,9.029874E-1,3.086325E-2,-1.8580174E-2,-6.618527E-1,3.3163685E-1,-4.730394E-2,-7.232245E-2,5.1677257E-1,-2.2920823E-1,6.919754E-2,-1.15698185E-2,-5.806779E-3,-3.9985407E-2,7.7089584E-1,-2.6750493E-1,3.368161E-1,-3.214597E-2,4.661882E-2,-8.487797E-3,-6.7433006E-1,1.781839E-1,4.8622858E-2,9.17131E-3,-3.2136504E-2,1.0221778E-2,4.3397E-2,-1.2631013E-2,-5.8122114E-3,-4.0609654E-2,-8.692416E-3,2.221119E-2],"categories":[],"categories_nodes":[],"categories_segments":[],"categories_sizes":[],"default_left":[0,0,0,0,0,0,0,0,0,0,0,0,0,0,0,0,0,0,0,0,0,0,0,0,0,0,0,0,0,0,0,0,0,0,0,0,0,0,0,0,0,0,0,0,0,0,0],"id":19,"left_children":[1,3,5,7,-1,9,11,13,15,17,-1,-1,19,21,23,-1,25,-1,-1,27,29,-1,31,33,35,-1,-1,-1,-1,37,39,41,-1,-1,-1,43,45,-1,-1,-1,-1,-1,-1,-1,-1,-1,-1],"loss_changes":[8.218751E0,3.2915137E0,3.5779614E0,4.1945796E0,0E0,1.7725658E0,1.9570811E0,2.0545363E0,1.664295E0,1.0300287E0,0E0,0E0,2.6672196E0,1.7883091E0,1.4569527E0,0E0,2.8989537E0,0E0,0E0,2.5210834E-1,1.9476073E0,0E0,1.3423697E0,1.1938362E0,1.8261513E0,0E0,0E0,0E0,0E0,3.0419683E-1,7.5851774E-1,1.3039706E0,0E0,0E0,0E0,2.67565E-1,6.113448E-1,0E0,0E0,0E0,0E0,0E0,0E0,0E0,0E0,0E0,0E0],"parents":[2147483647,0,0,1,1,2,2,3,3,5,5,6,6,7,7,8,8,9,9,12,12,13,13,14,14,16,16,19,19,20,20,22,22,23,23,24,24,29,29,30,30,31,31,35,35,36,36],"right_children":[2,4,6,8,-1,10,12,14,16,18,-1,-1,20,22,24,-1,26,-1,-1,28,30,-1,32,34,36,-1,-1,-1,-1,38,40,42,-1,-1,-1,44,46,-1,-1,-1,-1,-1,-1,-1,-1,-1,-1],"split_conditions":[5.4249203E-1,1.2505515E0,-7.551211E-1,1.174216E0,-4.6365637E-2,1.8741654E-1,-6.050467E-1,1.16316E0,-3.0662593E-1,-3.8389418E-1,6.2465735E-2,4.191914E-2,9.348361E-2,-2.8206092E-1,-7.3118496E-1,-6.2134787E-3,-3.8389418E-1,3.086325E-2,-1.8580174E-2,-8.4537774E-1,1.7667061E0,-4.730394E-2,6.608805E-1,-4.5761168E-1,-4.033284E-1,6.919754E-2,-1.15698185E-2,-5.806779E-3,-3.9985407E-2,9.2459166E-1,1.9697084E0,-2.9319799E-2,-3.214597E-2,4.661882E-2,-8.487797E-3,-1.1947868E0,1.1793306E-1,4.8622858E-2,9.17131E-3,-3.2136504E-2,1.0221778E-2,4.3397E-2,-1.2631013E-2,-5.8122114E-3,-4.0609654E-2,-8.692416E-3,2.221119E-2],"split_indices":[0,2,1,1,0,10,10,4,0,10,0,0,9,9,0,0,10,0,0,9,8,0,6,10,7,0,0,0,0,10,7,5,0,0,0,10,0,0,0,0,0,0,0,0,0,0,0],"split_type":[0,0,0,0,0,0,0,0,0,0,0,0,0,0,0,0,0,0,0,0,0,0,0,0,0,0,0,0,0,0,0,0,0,0,0,0,0,0,0,0,0,0,0,0,0,0,0],"sum_hessian":[5.124019E1,3.181634E1,1.942385E1,2.6498375E1,5.3179646E0,8.203212E0,1.1220637E1,2.073201E1,5.766365E0,2.2899854E0,5.9132266E0,2.0181725E0,9.202465E0,9.694823E0,1.1037188E1,2.0399606E0,3.7264042E0,1.1313832E0,1.1586022E0,3.585704E0,5.6167607E0,5.8723407E0,3.8224828E0,2.6294193E0,8.407768E0,2.4623842E0,1.26402E0,1.0946895E0,2.4910147E0,3.0753849E0,2.541376E0,2.4648263E0,1.3576566E0,1.4148242E0,1.2145951E0,3.7047143E0,4.703054E0,1.8018402E0,1.2735447E0,1.214153E0,1.3272231E0,1.0480068E0,1.4168196E0,1.0990033E0,2.605711E0,2.1735191E0,2.5295348E0],"tree_param":{"num_deleted":"0","num_feature":"16","num_nodes":"47","size_leaf_vector":"1"}},{"base_weights":[-6.98281E-2,-4.835716E-1,1.4201052E-1,-1.5435506E-1,-4.8196223E-2,-2.631456E-1,4.5837215E-1,-4.655603E-1,6.140437E-1,4.4626843E-2,-7.169025E-1,5.4973215E-1,-2.9328605E-2,3.0171042E-2,-4.4707615E-2,1.0559219E-3,5.0730187E-2,-2.3336557E-1,6.784344E-2,-8.226229E-1,-4.2556333E-3,7.2958255E-1,-7.9250805E-2,-3.79209E-2,8.264051E-1,-4.9517772E-1,2.1639614E-1,-1.0214581E-2,-4.5853835E-2,-1.0942911E-1,9.134998E-1,2.422278E-2,-5.144804E-1,-5.760198E-3,6.7687236E-2,-2.5309034E-2,-4.0831596E-2,-2.4479592E-1,4.2407095E-2,9.259074E-3,-1.7377395E-2,2.404137E-1,1.0650291E0,-3.3000037E-2,-4.7382102E-3,-1.6443552E-2,1.9147886E-2,-3.0847138E-2,1.4120536E-2,6.1966807E-2,-3.390628E-2,5.808846E-2,1.8381093E-2],"categories":[],"categories_nodes":[],"categories_segments":[],"categories_sizes":[],"default_left":[0,0,0,0,0,0,0,0,0,0,0,0,0,0,0,0,0,0,0,0,0,0,0,0,0,0,0,0,0,0,0,0,0,0,0,0,0,0,0,0,0,0,0,0,0,0,0,0,0,0,0,0,0],"id":20,"left_children":[1,3,5,7,-1,9,11,13,15,17,19,21,-1,23,-1,-1,-1,25,-1,27,-1,29,31,-1,33,35,37,-1,-1,39,41,-1,43,-1,-1,45,-1,47,-1,-1,-1,49,51,-1,-1,-1,-1,-1,-1,-1,-1,-1,-1],"loss_changes":[4.7287617E0,2.7343302E0,4.7269406E0,3.157381E0,0E0,2.3212972E0,2.2837925E0,1.9637086E0,9.0309477E-1,4.2232113E0,3.7641048E-1,2.2534437E0,0E0,3.8881028E0,0E0,0E0,0E0,1.2482021E0,0E0,1.4030647E-1,0E0,2.44413E0,1.5293883E0,0E0,1.6769025E0,9.5036674E-1,1.4491583E0,0E0,0E0,3.186165E-1,1.0256939E0,0E0,1.4691472E-1,0E0,0E0,5.7750696E-1,0E0,8.0974144E-1,0E0,0E0,0E0,4.144371E0,2.4529934E-1,0E0,0E0,0E0,0E0,0E0,0E0,0E0,0E0,0E0,0E0],"parents":[2147483647,0,0,1,1,2,2,3,3,5,5,6,6,7,7,8,8,9,9,10,10,11,11,13,13,17,17,19,19,21,21,22,22,24,24,25,25,26,26,29,29,30,30,32,32,35,35,37,37,41,41,42,42],"right_children":[2,4,6,8,-1,10,12,14,16,18,20,22,-1,24,-1,-1,-1,26,-1,28,-1,30,32,-1,34,36,38,-1,-1,40,42,-1,44,-1,-1,46,-1,48,-1,-1,-1,50,52,-1,-1,-1,-1,-1,-1,-1,-1,-1,-1],"split_conditions":[1.3516033E-1,6.608805E-1,1.16316E0,-8.587262E-2,-4.8196223E-2,3.0668792E-1,1.2045496E0,-7.5141925E-1,-7.4951485E-2,1.9014652E-1,1.2501009E0,1.7667061E0,-2.9328605E-2,-1.0243376E0,-4.4707615E-2,1.0559219E-3,5.0730187E-2,-4.033284E-1,6.784344E-2,3.9633986E-1,-4.2556333E-3,-4.269109E-1,-7.551211E-1,-3.79209E-2,-7.433081E-1,-9.9369556E-1,1.174216E0,-1.0214581E-2,-4.5853835E-2,6.516742E-1,-3.8631395E-1,2.422278E-2,1.8032502E0,-5.760198E-3,6.7687236E-2,1.6613737E-2,-4.0831596E-2,-2.0691758E-1,4.2407095E-2,9.259074E-3,-1.7377395E-2,-1.3382984E0,1.6613737E-2,-3.3000037E-2,-4.7382102E-3,-1.6443552E-2,1.9147886E-2,-3.0847138E-2,1.4120536E-2,6.1966807E-2,-3.390628E-2,5.808846E-2,1.8381093E-2],"split_indices":[12,6,4,13,0,13,6,15,3,13,6,8,0,13,0,0,0,7,0,11,0,6,1,0,5,6,1,0,0,8,5,0,5,0,0,1,0,15,0,0,0,5,1,0,0,0,0,0,0,0,0,0,0],"split_type":[0,0,0,0,0,0,0,0,0,0,0,0,0,0,0,0,0,0,0,0,0,0,0,0,0,0,0,0,0,0,0,0,0,0,0,0,0,0,0,0,0,0,0,0,0,0,0,0,0,0,0,0,0],"sum_hessian":[5.216893E1,1.7231411E1,3.4937523E1,1.1008155E1,6.2232556E0,1.5392701E1,1.954482E1,8.115467E0,2.8926873E0,9.7089815E0,5.683719E0,1.8409206E1,1.1356142E0,4.194036E0,3.9214313E0,1.5907367E0,1.3019506E0,8.690171E0,1.0188103E0,4.610218E0,1.0735015E0,1.4191401E1,4.217806E0,2.130995E0,2.0630407E0,5.428938E0,3.2612336E0,1.0300412E0,3.5801766E0,2.624358E0,1.1567042E1,1.7883909E0,2.429415E0,1.0211784E0,1.0418622E0,2.6435707E0,2.7853673E0,2.2391214E0,1.0221123E0,1.2724025E0,1.3519555E0,2.600836E0,8.966207E0,1.378857E0,1.050558E0,1.6277479E0,1.0158229E0,1.2128085E0,1.0263128E0,1.0785995E0,1.5222366E0,7.2892475E0,1.6769592E0],"tree_param":{"num_deleted":"0","num_feature":"16","num_nodes":"53","size_leaf_vector":"1"}},{"base_weights":[-9.671199E-3,-2.526651E-1,3.286321E-1,-8.321924E-2,-6.6654176E-1,-4.1822746E-2,5.573018E-1,5.169728E-1,-2.2229587E-1,-8.186721E-1,2.343078E-3,1.7734626E-1,-3.6545422E-2,8.4089535E-1,-1.5302902E-1,5.3805586E-2,6.6892575E-3,-4.3934935E-1,7.0848435E-2,-5.9754867E-3,-4.6155807E-2,-8.638939E-2,3.967207E-2,1.1939956E-1,1.0666084E0,2.4102494E-1,-3.3330183E-2,-1.3575815E-2,1.5683828E-2,-6.560471E-1,2.2703716E-1,4.0915724E-2,-1.8912888E-1,3.212431E-1,-3.6317658E-2,2.7598677E-2,-1.6682114E-2,1.2061441E-2,1.2586468E0,-1.3170138E-2,3.1811457E-2,-8.4297067E-1,1.9026658E-2,5.6505322E-2,-3.384185E-2,-3.7361395E-2,1.1781471E-1,-1.8316397E-2,4.2294577E-2,2.1217264E-2,7.179233E-2,-8.8731265E-3,-4.6820786E-2,1.724126E-2,-1.7695067E-2],"categories":[],"categories_nodes":[],"categories_segments":[],"categories_sizes":[],"default_left":[0,0,0,0,0,0,0,0,0,0,0,0,0,0,0,0,0,0,0,0,0,0,0,0,0,0,0,0,0,0,0,0,0,0,0,0,0,0,0,0,0,0,0,0,0,0,0,0,0,0,0,0,0,0,0],"id":21,"left_children":[1,3,5,7,9,11,13,15,17,19,-1,21,-1,23,25,-1,27,29,31,-1,-1,33,-1,35,37,39,-1,-1,-1,41,43,-1,45,47,-1,-1,-1,-1,49,-1,-1,51,-1,-1,-1,-1,53,-1,-1,-1,-1,-1,-1,-1,-1],"loss_changes":[4.4863825E0,2.1703858E0,1.956933E0,2.0900578E0,1.0234985E0,1.585854E0,2.9859176E0,1.3486905E0,1.2979541E0,4.3996525E-1,0E0,1.38797E0,0E0,1.548492E0,1.1508996E0,0E0,3.8331017E-1,1.8209333E0,1.9680848E0,0E0,0E0,1.9519324E0,0E0,8.8540506E-1,9.188318E-1,8.659395E-1,0E0,0E0,0E0,2.0635395E0,3.6904755E0,0E0,1.4131882E0,2.0117562E0,0E0,0E0,0E0,0E0,2.806301E-1,0E0,0E0,3.2705307E-1,0E0,0E0,0E0,0E0,7.489715E-1,0E0,0E0,0E0,0E0,0E0,0E0,0E0,0E0],"parents":[2147483647,0,0,1,1,2,2,3,3,4,4,5,5,6,6,7,7,8,8,9,9,11,11,13,13,14,14,16,16,17,17,18,18,21,21,23,23,24,24,25,25,29,29,30,30,32,32,33,33,38,38,41,41,46,46],"right_children":[2,4,6,8,10,12,14,16,18,20,-1,22,-1,24,26,-1,28,30,32,-1,-1,34,-1,36,38,40,-1,-1,-1,42,44,-1,46,48,-1,-1,-1,-1,50,-1,-1,52,-1,-1,-1,-1,54,-1,-1,-1,-1,-1,-1,-1,-1],"split_conditions":[5.4249203E-1,6.4458275E-1,-4.347186E-1,-7.3118496E-1,1.5176549E0,1.24790326E-1,1.3765182E0,-9.044109E-1,-2.8202125E-1,-3.040644E-1,2.343078E-3,-2.0400664E-1,-3.6545422E-2,1.16316E0,2.0412464E0,5.3805586E-2,-8.623062E-1,1.174216E0,-8.174479E-2,-5.9754867E-3,-4.6155807E-2,-7.639365E-1,3.967207E-2,-4.269109E-1,-4.7434708E-1,1.6206052E0,-3.3330183E-2,-1.3575815E-2,1.5683828E-2,-3.716879E-1,-4.347186E-1,4.0915724E-2,1.3516033E-1,1.6613737E-2,-3.6317658E-2,2.7598677E-2,-1.6682114E-2,1.2061441E-2,5.003087E-1,-1.3170138E-2,3.1811457E-2,-1.5274906E0,1.9026658E-2,5.6505322E-2,-3.384185E-2,-3.7361395E-2,8.966286E-1,-1.8316397E-2,4.2294577E-2,2.1217264E-2,7.179233E-2,-8.8731265E-3,-4.6820786E-2,1.724126E-2,-1.7695067E-2],"split_indices":[0,3,3,0,5,15,15,11,15,11,0,11,0,4,5,0,5,1,15,0,0,15,0,6,2,15,0,0,0,7,3,0,12,1,0,0,0,0,15,0,0,15,0,0,0,0,11,0,0,0,0,0,0,0,0],"split_type":[0,0,0,0,0,0,0,0,0,0,0,0,0,0,0,0,0,0,0,0,0,0,0,0,0,0,0,0,0,0,0,0,0,0,0,0,0,0,0,0,0,0,0,0,0,0,0,0,0,0,0,0,0,0,0],"sum_hessian":[5.2565044E1,3.0739122E1,2.1825922E1,2.2662079E1,8.077044E0,8.642234E0,1.3183688E1,3.7521803E0,1.8909899E1,6.535761E0,1.541283E0,7.1202264E0,1.5220072E0,9.290663E0,3.8930259E0,1.2612861E0,2.4908943E0,1.0578493E1,8.331405E0,1.1281333E0,5.407627E0,5.5879407E0,1.5322855E0,2.5782452E0,6.712417E0,2.5031261E0,1.3898995E0,1.3673166E0,1.1235777E0,7.9943724E0,2.5841205E0,1.5957613E0,6.735644E0,3.7178447E0,1.870096E0,1.2072066E0,1.3710387E0,1.6928238E0,5.0195937E0,1.2461178E0,1.2570084E0,6.931256E0,1.0631163E0,1.1674341E0,1.4166864E0,1.8810383E0,4.854605E0,1.7396866E0,1.9781582E0,1.4740621E0,3.5455315E0,1.2103497E0,5.7209063E0,3.458987E0,1.3956183E0],"tree_param":{"num_deleted":"0","num_feature":"16","num_nodes":"55","size_leaf_vector":"1"}},{"base_weights":[1.5776455E-1,2.5230277E-1,-5.962282E-1,-3.773942E-1,3.6898315E-1,-6.8870735E-1,-3.9014516E-3,-4.3191485E-2,1.7753534E-1,4.3081027E-1,-3.5358094E-2,-5.498342E-3,-4.06565E-2,2.5654202E-2,-7.26724E-3,5.7249438E-2,6.188557E-1,4.469984E-1,-4.8425674E-1,2.999258E-1,9.2700464E-1,-1.0139968E-1,1.1768787E0,-3.978441E-2,-7.261352E-2,5.7891995E-1,-5.179507E-1,1.0779742E0,-6.684831E-4,-2.5239184E-2,1.594432E-2,8.4E-3,8.313955E-2,1.7464649E-2,-2.962307E-2,4.009521E-2,-1.0106645E-2,-3.6640108E-2,-8.098672E-3,1.9824177E-2,6.591078E-2],"categories":[],"categories_nodes":[],"categories_segments":[],"categories_sizes":[],"default_left":[0,0,0,0,0,0,0,0,0,0,0,0,0,0,0,0,0,0,0,0,0,0,0,0,0,0,0,0,0,0,0,0,0,0,0,0,0,0,0,0,0],"id":22,"left_children":[1,3,5,7,9,11,-1,-1,13,15,-1,-1,-1,-1,-1,17,19,21,23,25,27,29,31,-1,33,35,37,39,-1,-1,-1,-1,-1,-1,-1,-1,-1,-1,-1,-1,-1],"loss_changes":[3.8925953E0,3.618378E0,2.4081373E-1,2.285027E0,2.996348E0,2.769513E-1,0E0,0E0,5.640916E-1,2.6956677E0,0E0,0E0,0E0,0E0,0E0,3.1964927E0,2.2534962E0,3.613831E0,7.613431E-1,3.5255127E0,1.8064137E0,1.1621932E0,1.5956721E0,0E0,1.0518774E0,2.0801213E0,1.9667435E-1,1.2600708E0,0E0,0E0,0E0,0E0,0E0,0E0,0E0,0E0,0E0,0E0,0E0,0E0,0E0],"parents":[2147483647,0,0,1,1,2,2,3,3,4,4,5,5,8,8,9,9,15,15,16,16,17,17,18,18,19,19,20,20,21,21,22,22,24,24,25,25,26,26,27,27],"right_children":[2,4,6,8,10,12,-1,-1,14,16,-1,-1,-1,-1,-1,18,20,22,24,26,28,30,32,-1,34,36,38,40,-1,-1,-1,-1,-1,-1,-1,-1,-1,-1,-1,-1,-1],"split_conditions":[1.2505515E0,-1.0079826E0,1.5970329E0,1.3989972E0,1.7832375E0,2.962821E-1,-3.9014516E-3,-4.3191485E-2,-1.5211613E0,1.1793306E-1,-3.5358094E-2,-5.498342E-3,-4.06565E-2,2.5654202E-2,-7.26724E-3,-3.8389418E-1,5.504289E-1,-8.4462863E-1,6.606538E-1,1.2474622E-1,1.8032502E0,-5.6362104E-1,-3.0662593E-1,-3.978441E-2,5.964554E-1,1.39161E0,9.670511E-1,1.16316E0,-6.684831E-4,-2.5239184E-2,1.594432E-2,8.4E-3,8.313955E-2,1.7464649E-2,-2.962307E-2,4.009521E-2,-1.0106645E-2,-3.6640108E-2,-8.098672E-3,1.9824177E-2,6.591078E-2],"split_indices":[2,9,11,12,9,11,0,0,9,0,0,0,0,0,0,10,9,10,6,9,5,9,0,0,11,0,0,4,0,0,0,0,0,0,0,0,0,0,0,0,0],"split_type":[0,0,0,0,0,0,0,0,0,0,0,0,0,0,0,0,0,0,0,0,0,0,0,0,0,0,0,0,0,0,0,0,0,0,0,0,0,0,0,0,0],"sum_hessian":[5.1498684E1,4.6352257E1,5.1464276E0,6.896893E0,3.945536E1,4.087858E0,1.0585694E0,3.3786323E0,3.5182607E0,3.7878807E1,1.5765563E0,1.0566702E0,3.031188E0,1.4364082E0,2.0818527E0,1.3119924E1,2.4758883E1,7.730457E0,5.389467E0,1.3136303E1,1.162258E1,4.905652E0,2.8248048E0,2.5370722E0,2.8523943E0,1.00128765E1,3.123427E0,9.888702E0,1.7338772E0,2.4005725E0,2.5050797E0,1.355721E0,1.4690837E0,1.7556236E0,1.0967709E0,7.7683725E0,2.2445035E0,1.2876788E0,1.8357482E0,3.2681944E0,6.6205077E0],"tree_param":{"num_deleted":"0","num_feature":"16","num_nodes":"41","size_leaf_vector":"1"}},{"base_weights":[2.9846048E-2,-2.843346E-1,4.2165267E-1,-4.4083846E-1,2.392001E-1,8.337372E-1,-2.5443825E-1,-7.449264E-1,-2.0101367E-1,-3.138735E-1,6.178027E-1,-3.7849688E-3,9.7010154E-1,-4.819154E-1,2.951071E-1,-1.2552536E-1,-4.9122754E-2,4.0179247E-1,-5.6207806E-1,8.452925E-3,-3.3053E-2,1.3470918E-1,6.0212404E-2,2.4063817E-1,1.1093752E0,1.9053318E-2,-6.78339E-1,2.8644813E-2,-7.3401937E-3,-3.626199E-2,3.4409884E-2,-1.345653E-2,6.618508E-1,-7.480542E-1,-1.5508959E-1,3.6029916E-2,-1.8763512E-2,4.341264E-2,-3.122261E-2,1.1838655E0,1.283384E-2,-4.3866E-2,-7.378638E-3,-2.261181E-3,5.7923973E-2,-4.5011565E-2,-9.468823E-3,-2.8670287E-2,1.7156118E-1,6.7865506E-2,6.010608E-1,1.8612096E-2,-5.417148E-3,-2.7782444E-3,4.6131875E-2],"categories":[],"categories_nodes":[],"categories_segments":[],"categories_sizes":[],"default_left":[0,0,0,0,0,0,0,0,0,0,0,0,0,0,0,0,0,0,0,0,0,0,0,0,0,0,0,0,0,0,0,0,0,0,0,0,0,0,0,0,0,0,0,0,0,0,0,0,0,0,0,0,0,0,0],"id":23,"left_children":[1,3,5,7,9,11,13,15,17,19,21,-1,23,25,27,29,-1,31,33,-1,-1,35,-1,37,39,-1,41,-1,-1,-1,-1,-1,43,45,47,-1,-1,-1,-1,49,-1,-1,-1,-1,-1,-1,-1,-1,51,-1,53,-1,-1,-1,-1],"loss_changes":[6.795098E0,2.6201906E0,7.047721E0,1.599082E0,1.8086967E0,1.992877E0,1.3994796E0,1.3779297E0,3.441924E0,7.483704E-1,1.2301756E0,0E0,1.1078024E0,1.5286003E0,5.216812E-1,2.4388442E0,0E0,1.2456436E0,6.149974E-1,0E0,0E0,1.412044E0,0E0,2.4133687E0,4.0024853E-1,0E0,5.5313444E-1,0E0,0E0,0E0,0E0,0E0,1.7022231E0,3.7085342E-1,6.8466306E-1,0E0,0E0,0E0,0E0,1.867218E-1,0E0,0E0,0E0,0E0,0E0,0E0,0E0,0E0,2.1889895E-1,0E0,9.105545E-1,0E0,0E0,0E0,0E0],"parents":[2147483647,0,0,1,1,2,2,3,3,4,4,5,5,6,6,7,7,8,8,9,9,10,10,12,12,13,13,14,14,15,15,17,17,18,18,21,21,23,23,24,24,26,26,32,32,33,33,34,34,39,39,48,48,50,50],"right_children":[2,4,6,8,10,12,14,16,18,20,22,-1,24,26,28,30,-1,32,34,-1,-1,36,-1,38,40,-1,42,-1,-1,-1,-1,-1,44,46,48,-1,-1,-1,-1,50,-1,-1,-1,-1,-1,-1,-1,-1,52,-1,54,-1,-1,-1,-1],"split_conditions":[2.7956343E-1,1.174216E0,1.6613737E-2,-7.3405236E-1,-3.0662593E-1,1.1793306E-1,1.5583822E0,-9.044109E-1,-3.8389418E-1,-7.709111E-1,-7.4951485E-2,-3.7849688E-3,-4.347186E-1,-4.4163063E-1,1.8032502E0,-1.2897394E0,-4.9122754E-2,-9.044109E-1,7.883486E-1,8.452925E-3,-3.3053E-2,-6.243101E-1,6.0212404E-2,1.2474622E-1,1.4046308E0,1.9053318E-2,9.670511E-1,2.8644813E-2,-7.3401937E-3,-3.626199E-2,3.4409884E-2,-1.345653E-2,1.3516033E-1,4.8161185E-1,-3.0662593E-1,3.6029916E-2,-1.8763512E-2,4.341264E-2,-3.122261E-2,1.097687E0,1.283384E-2,-4.3866E-2,-7.378638E-3,-2.261181E-3,5.7923973E-2,-4.5011565E-2,-9.468823E-3,-2.8670287E-2,-8.4537774E-1,6.7865506E-2,2.8481564E-1,1.8612096E-2,-5.417148E-3,-2.7782444E-3,4.6131875E-2],"split_indices":[10,1,1,10,0,0,7,11,10,10,3,0,3,13,5,9,0,11,1,0,0,5,0,9,13,0,0,0,0,0,0,0,12,9,0,0,0,0,0,8,0,0,0,0,0,0,0,0,9,0,3,0,0,0,0],"split_type":[0,0,0,0,0,0,0,0,0,0,0,0,0,0,0,0,0,0,0,0,0,0,0,0,0,0,0,0,0,0,0,0,0,0,0,0,0,0,0,0,0,0,0,0,0,0,0,0,0,0,0,0,0,0,0],"sum_hessian":[5.3226746E1,2.9691843E1,2.3534903E1,2.2980177E1,6.7116656E0,1.4477526E1,9.057377E0,9.203894E0,1.3776284E1,2.7968762E0,3.9147894E0,1.9457661E0,1.253176E1,6.4928226E0,2.5645545E0,2.9748564E0,6.2290373E0,5.1183195E0,8.657964E0,1.3843392E0,1.412537E0,2.820809E0,1.0939806E0,2.4463751E0,1.0085385E1,1.0295407E0,5.463282E0,1.3926905E0,1.1718639E0,1.775241E0,1.1996154E0,1.4199955E0,3.6983242E0,5.3673115E0,3.2906525E0,1.1205134E0,1.7002953E0,1.4156668E0,1.0307082E0,8.917953E0,1.1674323E0,3.4987075E0,1.9645748E0,1.900883E0,1.7974412E0,3.7378151E0,1.6294965E0,1.1116455E0,2.179007E0,5.8484955E0,3.0694573E0,1.0769697E0,1.1020373E0,1.2810006E0,1.7884566E0],"tree_param":{"num_deleted":"0","num_feature":"16","num_nodes":"55","size_leaf_vector":"1"}},{"base_weights":[6.989934E-2,1.7153129E-1,-7.4667734E-1,-1.304156E-1,4.418132E-1,-4.3634254E-2,-3.3885601E-3,-4.4368458E-1,5.212219E-2,-2.0132128E-2,5.221114E-1,-8.22746E-2,-4.1769255E-2,1.0426109E0,-3.10262E-1,7.8050345E-1,1.0023651E-1,-4.7066844E-1,2.91849E-1,1.0143681E-2,6.520118E-2,-5.027349E-1,3.1387272E-1,2.5819882E-3,8.655933E-1,3.6820552E-1,-3.662192E-2,-4.08313E-3,-3.0825565E-2,3.3933036E-2,-1.0244311E-2,-5.070559E-3,-6.819609E-1,-9.162953E-3,3.366531E-2,9.2493343E-1,8.255547E-3,7.6242015E-2,5.8616724E-2,1.9270869E-2,-1.611976E-2,-4.331113E-2,-1.30673E-2,2.919348E-2,5.5223584E-2,-3.429326E-2,1.9398062E-2],"categories":[],"categories_nodes":[],"categories_segments":[],"categories_sizes":[],"default_left":[0,0,0,0,0,0,0,0,0,0,0,0,0,0,0,0,0,0,0,0,0,0,0,0,0,0,0,0,0,0,0,0,0,0,0,0,0,0,0,0,0,0,0,0,0,0,0],"id":24,"left_children":[1,3,5,7,9,-1,-1,11,13,-1,15,17,-1,19,21,23,25,27,29,-1,-1,31,33,-1,35,37,-1,-1,-1,-1,-1,39,41,-1,-1,43,-1,45,-1,-1,-1,-1,-1,-1,-1,-1,-1],"loss_changes":[4.5215445E0,3.9662127E0,4.5811296E-1,1.360848E0,1.9393063E0,0E0,0E0,1.1653948E0,5.9501023E0,0E0,2.5075479E0,9.573978E-1,0E0,7.075362E-1,1.6290722E0,8.585062E-1,2.5361276E0,1.284594E-1,8.099705E-1,0E0,0E0,8.657532E-1,7.492089E-1,0E0,3.8671398E-1,1.8709805E0,0E0,0E0,0E0,0E0,0E0,5.688251E-1,3.2833314E-1,0E0,0E0,7.442856E-2,0E0,1.9754353E0,0E0,0E0,0E0,0E0,0E0,0E0,0E0,0E0,0E0],"parents":[2147483647,0,0,1,1,2,2,3,3,4,4,7,7,8,8,10,10,11,11,13,13,14,14,15,15,16,16,17,17,18,18,21,21,22,22,24,24,25,25,31,31,32,32,35,35,37,37],"right_children":[2,4,6,8,10,-1,-1,12,14,-1,16,18,-1,20,22,24,26,28,30,-1,-1,32,34,-1,36,38,-1,-1,-1,-1,-1,40,42,-1,-1,44,-1,46,-1,-1,-1,-1,-1,-1,-1,-1,-1],"split_conditions":[1.2045496E0,-9.428866E-2,1.4046308E0,-9.5804113E-1,-1.1409886E0,-4.3634254E-2,-3.3885601E-3,-1.3187581E0,-8.157899E-1,-2.0132128E-2,1.6613737E-2,-1.5211722E0,-4.1769255E-2,-8.7793577E-1,6.608805E-1,1.1793306E-1,6.608805E-1,-1.7401962E0,-7.3118496E-1,1.0143681E-2,6.520118E-2,-7.551211E-1,1.16316E0,2.5819882E-3,1.3764303E0,3.8893265E-1,-3.662192E-2,-4.08313E-3,-3.0825565E-2,3.3933036E-2,-1.0244311E-2,1.16316E0,-3.716879E-1,-9.162953E-3,3.366531E-2,4.193244E-1,8.255547E-3,-5.528297E-2,5.8616724E-2,1.9270869E-2,-1.611976E-2,-4.331113E-2,-1.30673E-2,2.919348E-2,5.5223584E-2,-3.429326E-2,1.9398062E-2],"split_indices":[6,9,13,9,1,0,0,13,13,0,1,13,0,7,6,0,6,9,0,0,0,1,4,0,9,6,0,0,0,0,0,4,7,0,0,7,0,7,0,0,0,0,0,0,0,0,0],"split_type":[0,0,0,0,0,0,0,0,0,0,0,0,0,0,0,0,0,0,0,0,0,0,0,0,0,0,0,0,0,0,0,0,0,0,0,0,0,0,0,0,0,0,0,0,0,0,0],"sum_hessian":[5.193952E1,4.68931E1,5.046423E0,2.239353E1,2.4499569E1,4.0156703E0,1.030753E0,7.7177625E0,1.4675768E1,1.7787732E0,2.2720797E1,4.6434445E0,3.0743182E0,3.428289E0,1.12474785E1,1.356336E1,9.157436E0,2.1516588E0,2.4917858E0,1.2355124E0,2.1927767E0,8.745132E0,2.5023465E0,1.5858814E0,1.1977478E1,7.3499126E0,1.8075234E0,1.0120798E0,1.1395789E0,1.1949928E0,1.2967929E0,2.5877922E0,6.15734E0,1.2557145E0,1.2466319E0,1.074667E1,1.2308092E0,6.1953244E0,1.154588E0,1.0639503E0,1.5238419E0,3.5449562E0,2.6123838E0,5.17256E0,5.574109E0,1.4500067E0,4.745318E0],"tree_param":{"num_deleted":"0","num_feature":"16","num_nodes":"47","size_leaf_vector":"1"}},{"base_weights":[1.8579291E-2,1.6883095E-1,-4.5069128E-1,-4.4497803E-2,4.4757035E-1,-6.6580397E-1,1.4819416E-1,1.7532365E-1,-3.574966E-1,5.719421E-1,-3.2283095E-1,-3.552574E-1,-4.4129938E-2,4.7593784E-2,-3.5101723E-2,3.1925806E-1,-3.3519026E-2,-5.630131E-1,1.5010646E-1,4.0692675E-1,6.477368E-2,-2.896217E-2,4.0421984E-3,-7.147553E-2,-3.5429303E-2,1.4435124E-1,5.601045E-2,-4.2545583E-2,-1.17064014E-1,3.710204E-2,-3.2577287E-2,8.78402E-1,2.194318E-2,-4.0817407E-1,2.1238072E-2,-4.746498E-1,4.7283727E-1,-2.9598877E-2,1.3658811E-2,-5.6977947E-3,1.0946398E0,-2.0745628E-1,3.757367E-2,-2.3731512E-3,-2.8082982E-2,-3.6575433E-2,-3.088039E-3,4.793283E-2,-1.6768508E-2,6.957952E-2,2.1671792E-2,-2.9192535E-2,1.5993064E-2],"categories":[],"categories_nodes":[],"categories_segments":[],"categories_sizes":[],"default_left":[0,0,0,0,0,0,0,0,0,0,0,0,0,0,0,0,0,0,0,0,0,0,0,0,0,0,0,0,0,0,0,0,0,0,0,0,0,0,0,0,0,0,0,0,0,0,0,0,0,0,0,0,0],"id":25,"left_children":[1,3,5,7,9,11,13,15,17,19,21,23,-1,-1,-1,25,-1,27,29,31,-1,-1,-1,33,-1,35,-1,-1,37,-1,-1,39,41,43,-1,45,47,-1,-1,-1,49,51,-1,-1,-1,-1,-1,-1,-1,-1,-1,-1,-1],"loss_changes":[3.8087432E0,2.4476295E0,1.7878201E0,1.7164989E0,1.8892539E0,3.4817076E-1,3.5948312E0,2.0144787E0,1.153352E0,1.3447413E0,3.6894742E-1,5.2232355E-1,0E0,0E0,0E0,1.7039292E0,0E0,8.637426E-1,2.2592678E0,2.5626502E0,0E0,0E0,0E0,8.8869965E-1,0E0,2.6803405E0,0E0,0E0,9.2216706E-1,0E0,0E0,1.4913197E0,1.6380202E0,1.4278883E-1,0E0,4.5184147E-1,3.6164734E0,0E0,0E0,0E0,4.4204235E-1,1.6795648E0,0E0,0E0,0E0,0E0,0E0,0E0,0E0,0E0,0E0,0E0,0E0],"parents":[2147483647,0,0,1,1,2,2,3,3,4,4,5,5,6,6,7,7,8,8,9,9,10,10,11,11,15,15,17,17,18,18,19,19,23,23,25,25,28,28,31,31,32,32,33,33,35,35,36,36,40,40,41,41],"right_children":[2,4,6,8,10,12,14,16,18,20,22,24,-1,-1,-1,26,-1,28,30,32,-1,-1,-1,34,-1,36,-1,-1,38,-1,-1,40,42,44,-1,46,48,-1,-1,-1,50,52,-1,-1,-1,-1,-1,-1,-1,-1,-1,-1,-1],"split_conditions":[6.4458275E-1,-8.6923465E-2,1.7539136E0,-4.5761168E-1,1.7667061E0,-7.551211E-1,1.8032502E0,-8.174479E-2,2.7956343E-1,9.9406344E-1,8.194994E-1,1.636653E0,-4.4129938E-2,4.7593784E-2,-3.5101723E-2,-3.4349048E-1,-3.3519026E-2,7.883486E-1,-2.6950398E-1,1.24790326E-1,6.477368E-2,-2.896217E-2,4.0421984E-3,1.1793306E-1,-3.5429303E-2,-1.1210693E0,5.601045E-2,-4.2545583E-2,-2.1802978E-1,3.710204E-2,-3.2577287E-2,-1.5684848E-1,1.1088854E0,3.876839E-1,2.1238072E-2,-9.323313E-1,-6.880928E-1,-2.9598877E-2,1.3658811E-2,-5.6977947E-3,1.6613737E-2,6.011084E-1,3.757367E-2,-2.3731512E-3,-2.8082982E-2,-3.6575433E-2,-3.088039E-3,4.793283E-2,-1.6768508E-2,6.957952E-2,2.1671792E-2,-2.9192535E-2,1.5993064E-2],"split_indices":[3,7,10,10,8,1,5,15,10,5,15,5,0,0,0,13,0,1,15,15,0,0,0,0,0,10,0,0,10,0,0,15,10,7,0,13,7,0,0,0,1,13,0,0,0,0,0,0,0,0,0,0,0],"split_type":[0,0,0,0,0,0,0,0,0,0,0,0,0,0,0,0,0,0,0,0,0,0,0,0,0,0,0,0,0,0,0,0,0,0,0,0,0,0,0,0,0,0,0,0,0,0,0,0,0,0,0,0,0],"sum_hessian":[5.1938908E1,3.982721E1,1.21117E1,2.3036755E1,1.6790453E1,8.828771E0,3.2829304E0,1.3791052E1,9.245704E0,1.467841E1,2.1120427E0,4.714372E0,4.1143985E0,1.6262033E0,1.656727E0,1.231722E1,1.4738317E0,6.50345E0,2.7422535E0,1.3224683E1,1.4537274E0,1.0256373E0,1.0864054E0,3.2812626E0,1.4331093E0,1.1078245E1,1.2389749E0,3.4002216E0,3.1032283E0,1.6202402E0,1.1220132E0,5.368463E0,7.85622E0,2.0605998E0,1.2206628E0,3.6864724E0,7.3917727E0,1.1665756E0,1.9366528E0,1.045136E0,4.323327E0,6.5212536E0,1.3349661E0,1.0058815E0,1.0547183E0,1.7969214E0,1.8895512E0,4.500399E0,2.8913736E0,2.2211602E0,2.1021667E0,3.7426066E0,2.778647E0],"tree_param":{"num_deleted":"0","num_feature":"16","num_nodes":"53","size_leaf_vector":"1"}},{"base_weights":[-3.7737608E-2,-1.9014055E-1,5.512148E-1,-6.025552E-2,-5.1033175E-1,8.327649E-1,-2.5814015E-1,-5.396097E-1,4.0389612E-2,-1.8894473E-1,-4.181854E-2,5.9814747E-2,1.2363715E-2,1.5695924E-2,-3.3015553E-2,-4.1737974E-2,8.2468055E-3,5.1551145E-1,-4.6297383E-2,-4.8875928E-1,2.4936376E-2,-1.4596525E-2,1.857518E-2,4.9547028E-2,-3.1805746E-3,-3.9337736E-1,9.019634E-2,5.749281E-3,-6.599543E-1,1.2370079E-2,-5.7843214E-1,-3.0085588E-1,2.7730387E-1,-1.0361257E-2,-3.9125334E-2,-4.1388255E-2,-2.325934E-3,1.3673695E-2,-3.9707378E-2,2.2116276E-2,-9.116125E-3],"categories":[],"categories_nodes":[],"categories_segments":[],"categories_sizes":[],"default_left":[0,0,0,0,0,0,0,0,0,0,0,0,0,0,0,0,0,0,0,0,0,0,0,0,0,0,0,0,0,0,0,0,0,0,0,0,0,0,0,0,0],"id":26,"left_children":[1,3,5,7,9,11,13,15,17,19,-1,-1,21,-1,-1,-1,-1,23,25,27,-1,-1,-1,-1,-1,29,31,-1,33,-1,35,37,39,-1,-1,-1,-1,-1,-1,-1,-1],"loss_changes":[4.6644664E0,1.6785154E0,2.6531043E0,1.4871302E0,1.0707746E0,2.423235E0,1.0182146E0,1.2481484E0,1.0960789E0,1.7276826E0,0E0,0E0,4.9318948E-1,0E0,0E0,0E0,0E0,1.1916958E0,1.1219422E0,6.461371E-1,0E0,0E0,0E0,0E0,0E0,9.328145E-1,1.3473333E0,0E0,8.456612E-2,0E0,6.8654704E-1,1.9368515E0,1.006293E0,0E0,0E0,0E0,0E0,0E0,0E0,0E0,0E0],"parents":[2147483647,0,0,1,1,2,2,3,3,4,4,5,5,6,6,7,7,8,8,9,9,12,12,17,17,18,18,19,19,25,25,26,26,28,28,30,30,31,31,32,32],"right_children":[2,4,6,8,10,12,14,16,18,20,-1,-1,22,-1,-1,-1,-1,24,26,28,-1,-1,-1,-1,-1,30,32,-1,34,-1,36,38,40,-1,-1,-1,-1,-1,-1,-1,-1],"split_conditions":[1.0416627E0,2.0867631E-1,1.8032502E0,-1.1947868E0,6.7558527E-1,1.6613737E-2,-4.2694616E-1,-8.623062E-1,-1.1943407E0,9.2459166E-1,-4.181854E-2,5.9814747E-2,1.5583822E0,1.5695924E-2,-3.3015553E-2,-4.1737974E-2,8.2468055E-3,-6.419055E-1,-8.4462863E-1,-2.733179E-1,2.4936376E-2,-1.4596525E-2,1.857518E-2,4.9547028E-2,-3.1805746E-3,-7.433081E-1,-5.615308E-1,5.749281E-3,-7.551211E-1,1.2370079E-2,1.16316E0,-4.7434708E-1,5.560041E-1,-1.0361257E-2,-3.9125334E-2,-4.1388255E-2,-2.325934E-3,1.3673695E-2,-3.9707378E-2,2.2116276E-2,-9.116125E-3],"split_indices":[5,5,5,10,2,1,14,5,7,10,0,0,7,0,0,0,0,10,10,10,0,0,0,0,0,5,7,0,1,0,4,2,10,0,0,0,0,0,0,0,0],"split_type":[0,0,0,0,0,0,0,0,0,0,0,0,0,0,0,0,0,0,0,0,0,0,0,0,0,0,0,0,0,0,0,0,0,0,0,0,0,0,0,0,0],"sum_hessian":[4.979942E1,4.0099934E1,9.699486E0,2.9373007E1,1.0726925E1,7.1747003E0,2.5247853E0,4.3401527E0,2.5032854E1,6.197434E0,4.5294914E0,4.6541886E0,2.5205119E0,1.1328415E0,1.3919439E0,2.9285142E0,1.4116385E0,3.099272E0,2.1933582E1,4.5172415E0,1.6801924E0,1.4657457E0,1.054766E0,1.311497E0,1.7877752E0,5.659763E0,1.6273819E1,1.0704556E0,3.446786E0,1.1927575E0,4.4670053E0,5.069889E0,1.120393E1,1.3075149E0,2.139271E0,2.6626794E0,1.804326E0,2.5484235E0,2.5214653E0,8.271735E0,2.9321952E0],"tree_param":{"num_deleted":"0","num_feature":"16","num_nodes":"41","size_leaf_vector":"1"}},{"base_weights":[7.590428E-2,1.4700237E-1,-5.510665E-1,-6.85899E-2,3.6125576E-1,-6.462763E-1,-2.6330962E-3,-4.337461E-2,9.2732124E-2,5.4431176E-1,-3.050673E-2,-5.8106347E-3,-3.8668793E-2,4.3011072E-1,-2.669828E-1,-1.6668502E-2,6.925904E-1,-6.583864E-1,4.1633257E-1,-2.1614513E-1,6.220473E-1,1.0597937E-1,-6.3668084E-1,3.72522E-2,-5.074997E-1,1.6507229E-1,8.5454786E-1,-4.614428E-3,-4.0624946E-2,8.2258606E-1,-6.8623185E-2,-3.2035913E-2,1.974254E-2,1.2601446E0,1.060865E-1,-2.2153333E-2,4.5623896E-1,-1.5312304E-1,-4.381485E-2,-3.1648718E-2,-5.486874E-3,4.7701977E-2,-3.641131E-2,3.0189173E-3,9.965619E-1,1.2353121E-2,4.8927773E-2,-1.6603708E-2,1.2362184E-2,9.868138E-3,8.4354006E-2,-3.1145662E-2,2.0916017E-2,4.0178012E-2,-1.1910565E-2,-2.935541E-2,1.790267E-2,1.5951024E-2,5.3729594E-2],"categories":[],"categories_nodes":[],"categories_segments":[],"categories_sizes":[],"default_left":[0,0,0,0,0,0,0,0,0,0,0,0,0,0,0,0,0,0,0,0,0,0,0,0,0,0,0,0,0,0,0,0,0,0,0,0,0,0,0,0,0,0,0,0,0,0,0,0,0,0,0,0,0,0,0,0,0,0,0],"id":27,"left_children":[1,3,5,7,9,11,-1,-1,13,15,17,-1,-1,19,21,23,25,27,29,31,33,35,37,-1,39,41,43,-1,-1,45,47,-1,-1,49,51,-1,53,55,-1,-1,-1,-1,-1,-1,57,-1,-1,-1,-1,-1,-1,-1,-1,-1,-1,-1,-1,-1,-1],"loss_changes":[2.4873724E0,2.3008204E0,2.3686194E-1,3.3541102E0,1.8003867E0,2.270627E-1,0E0,0E0,2.7892153E0,1.4260702E0,2.762147E0,0E0,0E0,1.5924733E0,1.6231211E0,2.0723693E0,1.010066E0,2.8048587E-1,1.1978705E0,1.143748E0,2.934987E0,1.447087E0,5.3885865E-1,0E0,9.776783E-2,3.7988844E0,1.0754766E0,0E0,0E0,4.813814E-2,3.786811E-1,0E0,0E0,1.5161095E0,1.6821609E0,0E0,1.2635381E0,9.059994E-1,0E0,0E0,0E0,0E0,0E0,0E0,1.0536766E-1,0E0,0E0,0E0,0E0,0E0,0E0,0E0,0E0,0E0,0E0,0E0,0E0,0E0,0E0],"parents":[2147483647,0,0,1,1,2,2,3,3,4,4,5,5,8,8,9,9,10,10,13,13,14,14,15,15,16,16,17,17,18,18,19,19,20,20,21,21,22,22,24,24,25,25,26,26,29,29,30,30,33,33,34,34,36,36,37,37,44,44],"right_children":[2,4,6,8,10,12,-1,-1,14,16,18,-1,-1,20,22,24,26,28,30,32,34,36,38,-1,40,42,44,-1,-1,46,48,-1,-1,50,52,-1,54,56,-1,-1,-1,-1,-1,-1,58,-1,-1,-1,-1,-1,-1,-1,-1,-1,-1,-1,-1,-1,-1],"split_conditions":[1.2505515E0,1.16316E0,1.4391521E0,-1.052703E0,1.097687E0,1.8374702E-2,-2.6330962E-3,-4.337461E-2,3.998151E-2,1.3516033E-1,9.261976E-1,-5.8106347E-3,-3.8668793E-2,-3.0662593E-1,1.0061908E-1,-8.7712747E-1,-6.4404464E-1,-2.2563094E-1,1.3764303E0,-6.0746735E-1,-5.260666E-1,-2.193391E-1,4.638572E-1,3.72522E-2,-3.7584877E-1,-1.1003022E0,1.1793306E-1,-4.614428E-3,-4.0624946E-2,-4.7434708E-1,1.816169E0,-3.2035913E-2,1.974254E-2,-8.890274E-1,-3.4458616E-1,-2.2153333E-2,9.0779626E-1,6.7558527E-1,-4.381485E-2,-3.1648718E-2,-5.486874E-3,4.7701977E-2,-3.641131E-2,3.0189173E-3,-1.258829E-1,1.2353121E-2,4.8927773E-2,-1.6603708E-2,1.2362184E-2,9.868138E-3,8.4354006E-2,-3.1145662E-2,2.0916017E-2,4.0178012E-2,-1.1910565E-2,-2.935541E-2,1.790267E-2,1.5951024E-2,5.3729594E-2],"split_indices":[2,4,9,5,8,9,0,0,10,12,13,0,0,0,2,13,13,9,9,9,9,9,10,0,9,5,0,0,0,2,0,0,0,9,9,0,13,2,0,0,0,0,0,0,10,0,0,0,0,0,0,0,0,0,0,0,0,0,0],"split_type":[0,0,0,0,0,0,0,0,0,0,0,0,0,0,0,0,0,0,0,0,0,0,0,0,0,0,0,0,0,0,0,0,0,0,0,0,0,0,0,0,0,0,0,0,0,0,0,0,0,0,0,0,0,0,0,0,0,0,0],"sum_hessian":[5.298289E1,4.8274166E1,4.708724E0,2.4400776E1,2.387339E1,3.7043881E0,1.0043359E0,3.3640187E0,2.1036757E1,1.6005314E1,7.8680763E0,1.0866987E0,2.6176894E0,1.0754424E1,1.0282333E1,3.5316536E0,1.24736595E1,3.0744953E0,4.793581E0,2.4337597E0,8.320664E0,5.4736705E0,4.808663E0,1.1809833E0,2.3506706E0,3.4043722E0,9.069287E0,1.0000124E0,2.074483E0,2.2296047E0,2.5639763E0,1.4072407E0,1.0265191E0,3.0751946E0,5.24547E0,2.0286746E0,3.4449956E0,2.1363776E0,2.6722853E0,1.3374362E0,1.0132344E0,1.7716461E0,1.6327262E0,1.5919511E0,7.4773364E0,1.0263691E0,1.2032355E0,1.370004E0,1.1939722E0,1.3003863E0,1.7748083E0,1.2745783E0,3.9708917E0,2.1917171E0,1.2532787E0,1.0750903E0,1.0612872E0,1.2977029E0,6.179633E0],"tree_param":{"num_deleted":"0","num_feature":"16","num_nodes":"59","size_leaf_vector":"1"}},{"base_weights":[4.7906946E-2,-2.074618E-1,3.240435E-1,3.234633E-1,-3.4529546E-1,4.1528594E-1,-3.2211993E-2,-1.5029686E-2,6.084046E-1,-6.018069E-1,1.280045E-1,7.654767E-2,7.9870504E-1,4.730673E-2,4.961143E-4,-7.6788193E-1,9.636763E-2,-2.4398929E-1,4.2748532E-1,3.3314317E-1,-4.2531446E-2,9.450375E-1,6.2156987E-4,-3.4701878E-1,-4.912498E-2,3.8523138E-2,-3.1331796E-2,1.3242446E-2,-4.9418277E-1,4.7102045E-2,-1.6633969E-2,9.874846E-1,6.528263E-2,1.0944635E0,1.2490735E-2,-6.116675E-1,1.9856092E-2,-3.1308558E-2,-5.803165E-3,1.5370877E-2,5.858646E-2,-6.291062E-1,5.7105744E-1,3.9361545E-1,6.772402E-2,-3.8091995E-2,-3.1091643E-3,-7.7457875E-3,-3.8275316E-2,-3.906837E-3,4.6669256E-2,2.531811E-2,4.987677E-3],"categories":[],"categories_nodes":[],"categories_segments":[],"categories_sizes":[],"default_left":[0,0,0,0,0,0,0,0,0,0,0,0,0,0,0,0,0,0,0,0,0,0,0,0,0,0,0,0,0,0,0,0,0,0,0,0,0,0,0,0,0,0,0,0,0,0,0,0,0,0,0,0,0],"id":28,"left_children":[1,3,5,7,9,11,-1,-1,13,15,17,19,21,-1,-1,23,25,27,29,31,-1,33,-1,35,-1,-1,-1,-1,37,-1,-1,39,41,43,-1,45,-1,-1,-1,-1,-1,47,49,51,-1,-1,-1,-1,-1,-1,-1,-1,-1],"loss_changes":[3.5878942E0,2.0544891E0,2.4213305E0,1.2476765E0,2.6946142E0,2.911392E0,0E0,0E0,8.883897E-1,1.71559E0,1.040391E0,3.4374666E0,1.2112503E0,0E0,0E0,7.021904E-1,2.241767E0,6.8903065E-1,2.2763102E0,1.8814726E0,0E0,6.5617466E-1,0E0,1.3154922E0,0E0,0E0,0E0,0E0,9.142095E-2,0E0,0E0,3.4979343E-2,3.5019717E0,7.55147E-1,0E0,3.1662798E-1,0E0,0E0,0E0,0E0,0E0,1.5609658E-1,1.4140524E0,5.9576392E-2,0E0,0E0,0E0,0E0,0E0,0E0,0E0,0E0,0E0],"parents":[2147483647,0,0,1,1,2,2,3,3,4,4,5,5,8,8,9,9,10,10,11,11,12,12,15,15,16,16,17,17,18,18,19,19,21,21,23,23,28,28,31,31,32,32,33,33,35,35,41,41,42,42,43,43],"right_children":[2,4,6,8,10,12,-1,-1,14,16,18,20,22,-1,-1,24,26,28,30,32,-1,34,-1,36,-1,-1,-1,-1,38,-1,-1,40,42,44,-1,46,-1,-1,-1,-1,-1,48,50,52,-1,-1,-1,-1,-1,-1,-1,-1,-1],"split_conditions":[1.16316E0,-9.9369556E-1,1.2045496E0,-1.052703E0,1.174216E0,4.907007E-1,-3.2211993E-2,-1.5029686E-2,3.1227558E-3,